-0.24
0.83
-0.73
0.22
0.38
0.24
0.67
0.9
-0.32
0.82
0.78
-0.49
0.02
-0.48
-0.1
-0.42
-0.14
0.87
0.61
0.62
0.84
0.25
0.7
0.63
-0.07
-0.72
-0.18
-0.42
0.16
0.66
0.28
-0.13
-0.94
-0.45
-0.49
0
0.91
-0.86
-0.98
-0.59
-0.7
-0.97
0.5
0.8
0.65
-0.53
0.99
-0.07
-0.55
-0.75
-0.42
-0.28
-0.37
-0.92
-0.81
0.8
-0.52
0.18
-0.67
-0.01
-0.53
-0.1
-0.4
0.68
0.02
-0.41
0.12
-0.48
0.23
0.95
0.07
0.57
-0.92
0.3
-0.32
-0.08
0.74
-0.47
-0.48
0.13
-0.12
0.56
-0.73
-0.66
-0.63
-0.52
-0.36
0.43
-0.02
0.94
0.35
0.49
-0.07
-0.64
-0.79
0.54
0.71
-0.92
0.43
-0.18
-0.45
-0.28
-0.55
-0.04
-0.04
0.15
0.05
0.55
-0.43
-0.36
-0.02
0.91
0.63
-0.59
-0.43
0.16
0.34
-0.38
-0.79
-0.27
0.43
0.91
-0.78
-0.24
-0.8
0.42
-0.14
0.16
0.67
-0.92
0.23
0.58
-0.46
-0.9
0.51
-0.21
0.35
-0.92
-0.81
-0.3
0.47
0.68
0.72
0.96
-0.03
-0.66
0.82
-0.49
0.28
0.62
0.81
-0.45
-0.69
0.39
0.04
-0.24
-0.97
0.15
0.13
-0.44
-0.44
-0.36
-0.26
0.73
-0.35
-0.33
-0.88
0.88
0.09
-0.84
-0.23
0.95
-0.38
0.51
-0.14
0.27
0.26
-0.48
-0.16
-0.04
-0.27
0.58
-0.12
0.03
0.5
-0.06
0.75
0.41
-0.68
0.54
-0.31
0.01
-0.18
-0.93
0.98
-0.77
0.15
-0.96
-0.47
0.69
-0.16
-0.52
0.94
0.56
-0.69
0.6
-0.05
0.11
0.7
0.76
-0.8
-0.56
0.64
-0.76
0.91
0.59
0.74
0.45
-0.28
0.28
0.75
-0.8
-0.67
0.12
0.01
0.66
-0.86
0.23
0.09
-0.95
0.51
0.62
-0.31
-0.61
0.32
0.06
-0.72
-0.61
0.04
0.37
-0.75
0.84
0.61
-0.23
-0.18
-0.12
0.9
0.65
-0.49
-0.24
-0.23
-0.13
0.8
-0.63
0.33
-0.91
-0.48
-0.67
-0.21
0.6
-0.03
0.51
-0.72
0.72
-0.79
-0.14
0.61
0.27
0.71
0.92
-0.37
0.25
0.66
-0.85
0.94
0.12
0.14
0.19
-0.71
0.86
-0.88
0.64
0.18
-0.36
-0.94
0.6
-0.26
0.75
-0.84
0.25
0.35
-0.22
0.42
0.54
0.17
-0.37
-0.58
-0.49
0.35
-0.04
-0.36
-0.43
0.65
0.23
-0.16
0.65
0.13
0.24
0.65
0.72
0.63
0.53
-0.7
0.19
0.05
0.68
-0.75
0.72
0.4
0.25
-0.14
-0.41
0.69
0.53
-0.47
0.55
-0.03
0.63
0.79
-0.11
-0.18
0.55
-0.51
-0.71
-0.46
-0.56
-0.89
-0.63
0.61
0.54
-0.18
-0.95
-0.05
-0.39
-0.07
-0.88
0.25
-0.6
0.56
-0.81
-0.37
-0.67
0.72
-0.18
-0.21
-0.44
0.18
0.23
0.6
-0.34
-0.73
0.2
-0.19
-0.61
0.51
0.34
-0.21
0.23
0.27
-0.47
0.59
0.7
0.93
0.32
-0.6
-0.03
0.35
0.43
0.09
-0.56
0.3
0.4
-0.16
-0.97
0.26
0.3
0.42
0.17
-0.63
0.88
-0.89
-0.1
0.91
-0.09
0.22
-0.86
0.41
0.63
0.09
0.33
0.6
0.36
0.1
-0.96
0.72
-0.65
-0.41
0.79
0.02
0.07
0.71
-0.87
-0.76
-0.92
-0.74
-0.31
-0.85
0.78
-0.83
0.36
-0.44
0.81
0.32
-0.82
-0.75
0.79
0.04
-0.27
-0.99
0.35
0.22
0.72
0.14
0.05
0.26
0.47
-0.61
0.56
-0.42
-0.11
0.51
-0.36
0.37
-0.62
0.24
0.2
0.56
0.28
-0.53
-0.11
-0.29
0.02
-0.66
0.57
-0.44
-0.71
0.57
0.26
-0.56
-0.24
-0.4
-0.71
0.4
0.99
0.4
-0.27
0.65
0.56
0.56
-0.01
-0.44
-0.97
-0.46
-0.33
-0.92
-0.27
0.35
-0.93
0.89
-0.28
0.15
-0.75
-0.45
0.36
0.1
0.34
-0.8
0.62
0.01
0.65
0.33
0.41
-0.41
0.22
0.03
0.73
-0.32
-0.51
0
0.19
0.03
-0.02
0.18
0.58
-0.4
0.33
-0.65
-0.95
0.69
-0.75
-0.15
0.88
0.89
0.09
0.61
-0.12
0.66
0.63
0.81
0.9
-0.56
0.62
0.46
-0.49
0.51
0.88
0.92
0.77
-0.91
-0.94
0.14
-0.52
-0.97
-0.16
-0.12
-0.42
0.65
-0.58
-0.54
0.78
-0.79
-0.04
0.16
-0.06
0.18
0.63
-0.01
-0.96
-0.65
-0.46
-0.26
0.44
-0.44
-0.23
0.67
0.15
-0.62
0.6
-0.65
-0.05
-0.18
0.43
0.7
-0.14
0.91
-0.84
-0.45
0.98
-0.54
-0.32
0.84
-0.96
-0.72
-0.65
0.97
-0.98
0.61
0.02
-0.14
0.25
0.55
0.8
-0.91
0.2
0.5
-0.67
0.27
-0.57
0.61
0.36
-0.61
0.37
-0.09
0.6
-0.2
0.73
-0.17
-0.86
-0.77
-0.92
-0.46
-0.5
-0.64
0.51
0.41
-0.78
-0.7
0.86
0.95
-0.97
0.21
-0.78
-0.49
-0.88
0.45
-0.25
0.55
0.15
0.37
-0.96
-0.51
-0.56
0.91
-0.57
-0.53
-0.51
-0.05
0.12
-0.6
-0.72
-0.62
0.05
-0.1
0.86
0
-0.1
-0.39
0.97
0.53
0.21
0.05
0.08
0.17
0.27
-0.45
0.13
0.54
-0.7
0.1
-0.61
-0.16
0.61
0.68
0.05
0.26
-0.19
0.76
-0.04
0.19
0.67
0.68
0.06
0.28
0.77
0.35
0.75
-0.44
-0.17
-0.72
0.32
-0.74
-0.29
-0.42
-0.81
-0.7
0.38
0.78
-0.21
0.54
0.32
-0.99
0.47
0.05
-0.2
-0.95
0.04
-0.47
0.17
0.86
0.54
-0.71
0.31
-0.46
-0.43
-0.65
0.72
0.78
0.39
0.62
-0.44
-0.651154
-0.771094
-0.23253
-0.639669
0.648249
-0.612166
-0.422199
-0.897349
-0.535344
-0.364949
-0.629737
0.946236
-0.148889
-0.866821
0.150548
0.12638
-0.460003
0.919094
-0.0158996
0.456686
-0.429784
0.0649303
-0.122227
0.902814
-0.706646
-0.452938
-0.230929
0.0211572
0.618417
-0.0226315
0.221039
0.968243
-0.231288
0.0054282
0.983907
1.02047
-0.906793
-0.751603
0.268569
0.651378
0.0734527
0.922844
-0.810763
-0.0520359
0.851065
0.088915
0.403696
0.475239
0.483846
-0.979966
0.607301
-0.12094
0.248601
0.887464
-0.373123
-0.255843
0.0133551
0.579647
-0.20571
-0.729873
-0.770122
0.759725
-0.819026
-0.088562
0.69526
-0.692738
-0.635553
-0.0783992
0.404226
0.31299
-0.425298
0.573298
-0.369234
0.433638
-0.214632
0.637474
-0.445914
-0.388913
0.179401
-0.973329
-0.760228
0.536523
-0.398572
0.964253
0.294891
-0.190444
0.0397263
0.539529
0.66484
0.382902
0.317048
0.625026
-0.274101
-0.546033
-0.536096
0.172861
-0.880695
-0.127104
0.679078
-0.751604
-0.02
-0.14
-0.43
0.93
0.85
0.62
0.21
0.37
0.22
0.31
-0.01
-0.78
-0.98
-0.92
0.89
-0.41
-0.09
0.43
0.48
-0.94
0.24
0.2
-0.21
-0.01
0.45
-0.18
0.85
0.18
-0.64
0.28
0.49
0.8
0.79
-0.65
-0.54
0.49
0.47
0.86
-0.74
0.43
0.71
-0.23
0.19
0.41
0.63
-0.05
0.92
-0.55
0.77
0.79
-0.67
-0.26
-0.11
0.22
-0.71
-0.68
-0.7
0.58
-0.49
-0.33
-0.02
0.61
0.04
0.33
-0.08
0.54
-0.44
-0.69
-0.62
-0.45
-0.5
-0.59
0.32
-0.82
0.86
0.68
0.33
-0.57
-0.8
-0.34
0.71
-0.88
0.79
0.26
0.23
0.96
-0.37
-0.85
-0.41
0.74
-0.58
0.96
0.93
-0.03
-0.21
-0.45
-0.77
-0.45
0.64
-0.64
-0.76
0.64
0.66
-0.85
-0.92
-0.01
-0.77
0.65
-0.18
0.74
-0.93
-0.12
0.96
-0.71
0.89
0.92
-0.02
-0.76
0.07
-0.66
-0.55
-0.41
-0.93
-0.3
0.32
-0.29
-0.71
0.11
0.03
-0.63
-0.03
-0.05
-0.15
-0.23
0.9
0.82
-0.15
0.67
0.3
0.3
0.25
0.08
0.94
-0.88
0.26
0.17
0.1
-0.68
0.67
0.11
-0.98
0.36
-0.86
0.04
0.69
-0.52
-0.29
-0.49
0.54
-0.34
-0.89
-0.66
-0.79
-0.35
0.47
0.15
-0.48
0.21
0.95
-0.05
-0.43
0.18
0.92
-0.76
-0.89
-0.38
0.1
0.22
0.66
-0.3
-0.69
0.3
0.65
-0.69
-0.32
-0.7
0.99
-0.82
-0.57
0.64
-0.64
0.44
0.05
-0.25
0.52
-0.99
0.47
-0.01
-0.4
-0.27
0.82
-0.5
0.29
0.81
0.57
-0.34
0.22
0.98
-0.53
-0.46
-0.69
-0.42
0.96
0.17
0.3
0.56
-0.41
0.21
0.48
-0.38
-0.7
0.03
0
0.67
-0.8
-0.17
0.52
-0.15
0.03
0.45
0.01
-0.93
-0.64
0.62
0.19
0.7
-0.6
-0.26
0.15
0.04
-0.55
0.51
0.52
0.43
-0.42
0.98
-0.93
-0.84
-0.51
-0.1
0.76
0.97
0.58
0.21
0.51
0.52
-0.28
-0.89
-0.38
-0.69
-0.56
0.95
0.09
-0.76
-0.11
-0.36
0.79
0.96
-0.26
0.14
-0.19
-0.37
0.58
-0.18
-0.05
-0.32
-0.18
-0.97
0.51
-0.61
0.79
-0.22
-0.06
-0.68
0.01
-0.66
0.1
0.12
-0.44
0.08
-0.67
-0.22
-0.87
0.57
0.32
-0.16
-0.07
-0.94
-0.59
0.65
-0.63
-0.81
-0.7
-0.15
-0.44
-0.25
-0.31
0.06
0.5
-0.5
-0.68
0.18
-0.95
-0.45
-0.8
-0.63
-0.91
-0.79
0.37
0.22
0.78
0.21
0.98
-0.34
0.96
-0.64
0.26
0.46
0.39
-0.89
-0.19
0.14
0.21
0.14
0.48
0.75
0.51
0.91
-0.38
0.93
-0.75
-0.76
-0.02
-0.91
-0.76
-0.77
0.2
-0.87
0.78
0.55
0.77
-0.47
0.94
-0.78
-0.32
-0.72
0.29
-0.41
-0.04
0.62
-0.99
0.24
-0.46
-0.25
0.29
-0.76
-0.34
-0.29
-0.96
0.19
0.73
0.93
-0.21
0.71
0.77
0.97
-0.17
-0.23
-0.92
0.56
-0.46
-0.24
-0.14
-0.61
0.34
0.47
0.33
0.9
-0.74
0.58
-0.06
-0.82
0.31
0.57
-0.04
0.42
-0.88
0.97
0.31
-0.62
0.18
0.1
-0.81
0.67
-0.69
-0.65
0.41
0.63
0.75
0.41
-0.92
0.94
-0.75
0.81
-0.03
-0.24
0.1
0.3
-0.35
-0.53
0.75
0.54
-0.21
0.88
0.27
-0.16
0.87
-0.27
0.29
-0.49
-0.33
-0.32
0.44
0.76
0.88
0.7
0.46
0.19
0.76
-0.5
0.02
0.72
0.56
0.82
-0.75
0.02
0.58
-0.77
0.13
0.66
0.74
0.51
0.51
0.01
0.97
-0.17
-0.34
0.73
0.56
-0.78
0.9
0.59
0.76
-0.79
-0.85
-0.05
-0.45
0.22
0.69
-0.09
-0.51
-0.38
0.49
-0.15
-0.96
0.69
-0.97
-0.07
0.28
-0.99
-0.22
0.45
-0.73
0.85
-0.96
0.47
0
0.06
-0.63
0.88
-0.26
-0.32
-0.51
-0.36
0.41
-0.21
-0.29
0.39
0.03
-0.32
0.24
0.14
0.66
0.35
-0.21
-0.08
-0.2
-0.3
-0.5
0.1
0.13
0.93
0.56
-0.46
-0.05
0.64
0.27
-0.29
-0.77
0.21
0.42
0.9
0.93
-0.09
0.04
-0.35
0.58
-0.08
-0.98
-0.25
0.94
0.21
0.12
0.8
0.87
0.33
0.97
-0.63
-0.75
0.93
-0.27
-0.97
0.97
0.79
0.73
-0.59
-0.04
0.6
-0.99
0.44
0.1
-0.42
-0.03
-0.97
0.43
0.65
0
-0.73
-0.98
0.04
-0.58
-0.01
0.06
0.2
0.83
-0.55
-0.19
0.15
0.6
0.88
0.26
0.76
0.9
0.81
0.12
-0.97
0.71
0.51
0.97
0.77
-0.58
0.37
0.54
-0.59
-0.73
0.44
-0.3
-0.08
0.96
0.08
0.57
0.55
0.04
-0.61
0.26
0.66
0.3
-0.75
0.94
0.37
0.68
0.14
-0.5
-0.44
0.99
-0.77
-0.01
0
0.36
-0.4
-0.23
-0.82
-0.13
0.15
0.27
0.24
-0.26
-0.05
-0.71
-0.94
-0.04
-0.66
-0.1
-0.84
-0.53
-0.84
0.21
-0.77
0.6
-0.33
0.89
0.18
-0.67
0.44
0.08
-0.4
0.1
0.96
-0.52
0.71
-0.32
0.35
0.91
-0.25
0.15
0.06
0.12
0.55
0.2
0.67
0.85
-0.67
0.8
0.55
0.79
-0.52
-0.23
-0.51
0.38
0.19
0.59
-0.87
-0.62
0.04
-0.55
0.68
-0.4
0.48
-0.23
0.35
-0.08
0.14
-0.57
0.77
0.76
0.41
0.18
0.66
0.7
0.81
0.33
0.66
0.57
-0.7
-0.52
0.84
0.16
-0.85
-0.22
-0.51
-0.97
-0.89
-0.08
-0.99
-0.07
-0.95
-0.56
-0.56
0.09
-0.23
-0.975246
0.00912076
-0.181673
0.512369
-0.814606
-0.196556
-0.508694
-0.956889
0.683296
0.828077
-0.193997
-0.575745
0.570227
0.291634
0.353394
-0.489906
0.0177618
-0.343906
0.030435
-0.290473
0.473075
-0.723693
0.862263
-0.514383
0.376453
-0.364588
-0.156892
0.908274
0.426216
0.843419
-0.620499
0.936324
0.337809
0.850304
0.0359561
-0.59882
0.0104784
-0.635389
0.330551
0.784619
-0.200906
-0.972923
0.256957
0.0773167
-0.564335
0.840064
0.614338
-0.8647
-0.633477
0.0837179
-0.42
0.71
0.26
0.57
-0.25
0.8
0.5
0.35
0.26
0.69
0.43
0.7
0.41
-0.5
-0.34
0.07
0.7
0.3
-0.32
0.98
0.39
0.12
0.53
0.71
0.09
0.45
0.3
-0.05
0.88
-0.11
0.41
0.75
-0.94
0.29
-0.27
-0.61
0.63
-0.15
-0.99
-0.63
0.06
0.66
0.16
0.44
-0.71
0.18
-0.31
-0.82
0.96
0.01
0.839765
-0.867979
0.503045
0.787042
-0.710187
-0.383215
-0.902908
0.806941
-0.678761
0.819813
-0.909301
0.235543
0.336314
-0.00146896
0.573631
-0.109919
-0.471562
-0.647292
0.950795
-0.00718165
0.700237
-0.745706
-0.722648
-0.929891
-0.16955
-0.230015
-0.124835
-0.278329
0.614908
-0.0550167
0.450867
-0.726854
0.206423
0.599705
0.068984
-0.817065
0.567102
-0.227377
0.864069
0.0798263
0.141671
-0.984325
0.372564
0.531213
-0.9325
0.423988
-0.671247
0.223014
0.421098
-0.970586
-0.118585
-0.739474
0.555746
-0.505865
0.340205
0.825843
-0.896961
0.671431
-0.171227
0.0982236
0.0708191
0.498343
-0.0643263
0.123019
-0.661435
-0.815275
0.0756988
-0.426894
-0.867884
0.806587
0.76621
-0.863198
-0.925656
-0.358905
-0.387746
-0.257193
-0.702605
0.235694
0.25114
-0.635406
0.101529
0.0288837
-0.853485
0.969527
-0.418477
0.573063
-0.392106
0.123649
-0.236038
-0.547827
0.584149
-0.0366317
-0.172351
-0.854387
0.631008
-0.0717997
0.522025
0.165041
0.206069
0.984651
0.39338
0.0286304
-0.717035
0.126973
0.0384092
0.805053
0.80446
0.166964
-0.857803
0.630391
0.869722
-0.763455
0.180312
0.170215
0.85461
0.395281
-0.301185
-0.0553401
0.426283
-0.906982
-0.927042
0.686637
0.118322
-0.748349
0.453767
-0.730162
0.898627
-0.0236292
0.938095
0.543608
-0.927475
0.97781
0.600901
-0.340194
-0.560059
-0.825855
0.946759
-0.390977
0.486027
0.689699
0.965421
0.43718
-0.916676
-0.838924
0.576022
0.916954
0.940393
0.725756
0.824347
-0.0977557
-0.03
0.47
-0.25
0.6
0.07
-0.83
0.61
0.43
0.19
0.82
-0.26
-0.32
0.53
0.4
0.13
0.26
-0.1
0.98
-0.01
0.67
0.21
0.87
-0.23
0.06
-0.12
0.34
0.59
0.7
-0.9
-0.78
0.48
0.54
-0.08
0.33
-0.72
-0.97
-0.69
0.22
0.45
-0.07
-0.87
-0.29
-0.99
-0.27
0.86
-0.54
-0.48
0.59
0.61
0.31
0.67214
0.369421
0.0377254
-0.478751
0.790797
0.890768
0.768106
-0.0200561
0.927935
0.248701
-0.471065
0.279379
0.178097
0.110168
-0.288939
0.700461
0.621068
0.0715969
0.442625
-0.449548
-0.42054
-0.0590759
0.0713958
-0.850849
0.231015
-0.718459
0.131288
-0.427822
0.692384
0.458425
-0.779276
-0.86884
-0.638269
-0.0518801
0.490973
0.061737
-0.631593
0.632316
0.389515
0.569355
0.521891
-0.760081
0.850511
-0.940136
0.297652
0.540666
-0.0986361
0.209452
-0.481672
0.15959
0.55
0.25
-0.29
0.97
0.54
0.9
-0.32
-0.22
0.85
0.84
-0.22
-0.06
-0.17
0.06
-0.8
-0.34
0.56
0.59
0.93
-0.76
-0.19
0.53
-0.97
0.95
-0.51
-0.07
-0.69
0.73
0.18
0.11
0.52
-0.65
-0.81
-0.64
0.68
-0.86
-0.15
0.08
-0.24
-0.96
0.04
-0.68
0.29
-0.63
-0.94
0.33
0.79
-0.01
-0.99
-0.21
-0.221389
-0.379074
-0.169485
-0.362627
-0.391938
-0.955381
-0.375106
-0.100408
-0.224105
0.464864
-0.669038
-0.358221
-0.412575
0.62171
-0.325821
-0.103539
-0.141565
0.231802
-0.865105
-0.920496
0.310453
-0.860776
0.485126
0.932922
0.583804
-0.532954
0.624236
0.532828
-0.406676
-0.927648
-0.288094
-0.328611
-0.484865
-0.304867
0.632891
0.873408
0.0503082
0.671019
0.0226381
-0.0487954
-0.704876
-0.0314809
0.731801
-0.0108232
0.248565
-0.0270973
-0.857551
0.798253
0.504944
0.789448
-0.812699
0.17906
-0.591399
-0.272536
0.676877
0.454157
0.433355
-0.970353
-0.0457099
-0.299873
0.269878
-0.530275
0.350974
0.791438
-0.65474
0.417262
0.424447
-0.158399
0.664226
-0.0170099
-0.235298
0.413298
-0.869234
0.923638
0.00536814
-0.392526
0.794086
0.931087
-0.220599
-0.273329
-0.230228
0.716523
0.721428
0.374253
0.414891
0.189556
-0.290274
0.989529
-0.19516
0.0929024
0.467048
-0.244974
0.675899
-0.896033
-0.896096
0.452861
-0.730695
0.102896
0.239078
0.898396
0.75
0.85
-0.91
-0.56
0.41
0.75
0.71
0.91
-0.53
-0.6
-0.98
0.19
-0.19
-0.19
0.91
0.62
-0.4
0.1
0.41
-0.88
-0.62
-0.5
0.47
-0.96
0.5
0.37
-0.09
-0.84
0.63
0.25
0.79
0.92
0.68
0.71
0.72
-0.1
0.88
-0.9
-0.49
-0.33
-0.51
-0.44
0.68
-0.31
0.49
0.35
-0.66
0.41
-0.02
0.72
0.04
0.7
-0.68
-0.31
0.89
0.58
-0.36
0.6
0.44
0.06
-0.98
0.58
0.53
-0.55
0.22
-0.76
0.51
-0.71
-0.21
0.59
0.15
0.86
0.16
0.51
-0.94
-0.32
0.41
0.88
0.71
0.61
0.06
-0.42
0.31
-0.5
-0.71
0.8
-0.27
0.08
0.77
-0.6
0.92
0.26
-0.6
0.44
-0.23
-0.73
0.57
-0.2
-0.57
-0.31
-0.151154
-0.511094
0.83747
0.170331
0.908249
-0.952166
-0.472199
0.942651
0.254656
-0.464949
-0.459737
0.656236
0.411111
0.483179
0.140548
0.59638
1.01
0.599094
0.8041
-0.193314
0.0402162
-0.00506969
0.00777326
-0.497186
0.893354
0.157062
0.559071
-0.808843
-0.861583
0.657368
-0.458961
-0.141757
0.468712
0.335428
-0.916093
-0.859527
-0.146793
0.838397
0.0285687
0.191378
0.333453
0.832844
0.849237
0.667964
-0.158935
0.928915
-0.526304
0.375239
-0.996154
-0.329966
-0.39
-0.02
0.43
0.54
0.74
0.2
0.76
0.93
0.1
-0.14
-0.09
0.5
0.75
0.43
0.64
0.07
-0.18
-0.7
-0.52
-0.14
-0.47
-0.53
-0.55
0.8
0.66
-0.01
-0.76
-0.73
0.06
-0.81
0.05
-0.2
-0.37
0.15
-0.38
-0.43
0.07
-0.72
-0.97
-0.26
-0.6
-0.6
0.62
0.13
0.74
-0.57
0.1
-0.32
-0.56
0.25
0.8
0.47
0.11
-0.64
-0.54
0.49
-0.44
-0.01
0.15
0.89
0.86
-0.04
-0.49
0.18
0.63
-0.19
0.81
0.49
-0.01
-0.29
0.51
0.39
-0.1
-0.91
0.94
0.09
0.95
-0.55
0.71
0.64
0
0.08
-0.23
-0.78
0.4
-0.2
0.24
0.55
0.55
-0.73
-0.25
-0.53
-0.11
-0.39
0.33
0.41
0.94
0.42
-0.02
-0.29
0.97
-0.95
0.18
-0.3
0.18
0.2
0.71
0.5
-0.66
0.37
-0.23
0.02
0.67
0.24
-0.91
-0.34
-0.58
0.67
0.48
0.62
-0.86
-0.23
-0.06
0.25
-0.37
-0.31
0.24
-0.31
0.64
-0.6
0.57
0.56
-0.69
0.83
0.44
0.09
-0.72
0.63
-0.08
0.47
0.25
0.72
0.73
-0.86
0.44
0.76
-0.41
0.27
0.65
0.49
0.32
0.61
-0.8
0.03
0.08
0.16
0.35
-0.98
-0.26
-0.52
0.94
0.08
0.8
0.73
0.37
-0.11
-0.84
0.3
0
0.25
-0.04
0.05
-0.79
0.97
0.49
-0.36
0.76
0.35
0.22
-0.12
0.09
0.4
0.67
0.05
0.49
0.54
0.33
-0.26
0.79
-0.93
0.78
0.23
0.82
-0.19
-0.29
0.79
-0.65
-0.99
0.34
0.68
-0.34
0.86
0.4
-0.42
0.85
0.91
0.09
-0.58
0.84
-0.36
-0.57
-0.46
-0.55
0.81
-0.72
0.11
-0.82
-0.88
0.3
-0.86
-0.5
-0.76
-0.54
0.02
-0.89
-0.13
-0.25
0.98
-0.11
0.89
0.09
0.53
0.63
0.92
0.91
0.36
0.94
0.25
-0.01
0.06
-0.94
-0.13
-0.27
-0.69
0.27
0.77
0.64
0.23
-0.75
-0.49
0.4
-0.54
0.76
-0.43
-0.67
-0.12
-0.29
-0.49
0.88
-0.83
0.09
-0.39
0.65
0.78
0.47
0.81
-0.01
-0.67
-0.99
0.66
0.14
0.71
-0.45
-0.37
-0.87
-0.47
0.57
-0.68
0.09
0.84
-0.22
0.08
0.49
0.79
0.05
-0.59
-0.62
-0.88
-0.34
-0.73
-0.84
0.16
-0.82
0.45
-0.25
-0.66
0.5
0.23
0.85
0.37
0.4
-0.84
-0.71
0.84
0.91
0.08
-0.92
0.8
0.79
-0.61
-0.3
-0.69
0.99
-0.82
0.57
0.83
-0.08
-0.63
-0.59
0.01
-0.2
0.94
0.11
0.38
-0.49
0.72
-0.82
-0.29
-0.17
-0.49
0.25
0.33
0.92
-0.02
-0.39
0.88
0.89
-0.96
-0.83
0.07
0.51
0.57
-0.95
-0.71
-0.41
-0.23
-0.58
0.9
0.07
0.69
-0.65
-0.87
-0.58
0.36
0.03
-0.76
0.55
0.98
0.26
0.36
-0.62
0.88
-0.98
0.99
0.83
-0.63
-0.56
0.88
0.34
-0.41
-0.88
-0.14
0.44
0.44
-0.21
0.72
-0.66
-0.57
-0.07
-0.05
-0.67
0.6
0.57
0
0.94
0.56
-0.64
-0.91
0.24
-0.25
-0.29
-0.59
-0.83
-0.7
-0.55
-0.84
0.84
0.17
-0.14
-0.16
0.58
0.12
-0.6
-0.98
-0.92
-0.17
0.41
-0.78
-0.12
0.37
-0.86
0.55
-0.36
0.91
0.59
-0.88
-0.74
-0.06
0.67
0.57
0.31
0.2
-0.92
0.57
0.36
0.91
-0.68
0.5
0.13
-0.8
-0.54
0.39
0.04
0.99
-0.67
-0.01
0.04
0.2
0.19
0.63
-0.11
0.11
-0.46
-0.42
0.06
0.76
0.36
-0.75
-0.99
0.14
-0.698798
-0.0259608
0.942355
0.0945087
0.681193
0.524683
0.591988
-0.779827
0.491711
0.409581
-0.338535
-0.780991
-0.385368
-0.553727
0.954973
-0.148415
0.30103
-0.475549
0.0682093
-0.351533
-0.156614
0.458702
-0.74773
0.768835
-0.258565
0.166711
-0.550091
-0.123073
0.952385
0.798858
0.000322819
0.761968
0.0992332
-0.141314
0.754276
-0.818763
1.00128
0.897166
0.566803
1.00171
0.968231
0.473217
-0.483317
-0.362824
-0.230543
0.900708
0.00958861
-0.395768
-0.768691
0.692148
0.361202
-0.435961
0.872355
0.484509
-0.438807
-0.245317
-0.828012
0.460173
-0.168289
0.679581
0.991465
-0.210991
-0.155368
0.106273
-0.0250269
-0.958415
-0.44897
-0.845549
-0.0917907
-0.971533
0.833386
0.968702
-0.38773
0.668835
0.901435
-0.213289
0.169909
0.916927
0.352385
0.478858
-0.269677
0.781968
0.639233
-0.711314
0.924276
0.131237
0.301279
-0.872834
0.646803
0.191714
-0.411769
0.103217
0.386683
0.537176
-0.770543
0.330708
-0.680411
-0.615768
-0.428691
0.352148
-0.551904
-0.257419
-0.901593
-0.831873
0.597384
-0.171105
0.2114
0.993228
0.0129423
0.666359
0.316403
0.662643
0.322956
0.148075
0.289428
-0.58786
-0.90014
-0.917858
-0.0387311
0.898446
0.525921
-0.634067
0.345929
-0.826397
-0.0210964
-0.346336
-0.0756946
0.907379
-0.699015
-0.339298
-0.559452
0.339452
-0.181227
0.90711
0.691205
0.234154
-0.899836
0.504093
0.846869
-0.124312
0.319216
0.170213
0.514151
0.284357
0.862774
-0.0085622
-0.744709
0.598984
0.00616006
0.725456
0.904921
0.380703
-0.0165627
-1.01988
0.739268
0.0417005
0.714446
0.0815176
-0.248252
0.742098
0.691381
0.216353
-0.918574
-0.586235
-0.731117
-0.726076
-0.367735
0.0866841
-0.585462
-0.477977
-0.554378
-0.418155
0.537767
-0.779886
-0.459395
0.764978
0.66424
-0.854378
-0.145288
0.0438748
-0.465768
0.571234
0.673143
0.810497
0.0317774
-0.989774
-0.58556
-1.05769
0.207648
0.31062
0.457756
0.376646
0.709315
0.420349
0.6137
0.398164
0.883738
0.0464449
-0.314958
0.752013
-0.918876
0.601138
0.369621
-0.59279
0.0784482
-0.972855
0.438758
0.24111
-0.542165
0.291124
-0.877361
-0.492129
0.650016
0.660665
-0.826456
-0.053131
-0.356197
-0.296214
-0.963482
0.886789
-0.942065
-0.889593
0.977851
0.685528
-0.917294
0.616339
-0.595632
0.108082
-0.125149
-0.766717
0.100904
-0.102653
0.73828
-0.839613
-0.924703
-0.911403
-0.781856
-0.677494
0.501366
-0.00668614
-0.0831879
0.671105
0.0803595
0.906677
-0.47919
0.446673
0.711374
-0.191254
-0.45495
-0.397321
-0.0646765
-0.230676
-0.802589
-0.318384
-0.584164
-0.429133
0.776512
-0.571222
-0.488194
-0.603279
0.290146
-0.851328
-0.962666
-0.509202
0.656888
0.777085
-0.361005
-0.879399
-0.500419
-0.556002
-0.281548
0.610895
0.0314645
-0.482747
-0.0643935
-0.0414948
-0.875273
0.450965
-0.431695
-0.555486
-0.740248
-0.539398
0.517971
-0.232773
0.0608784
-0.623307
-0.0440385
-0.970731
0.293541
-0.298273
-0.891694
-0.422749
-0.522198
-0.838353
-0.510934
-0.770769
-0.868995
-0.461306
-0.924478
-0.163171
-0.478399
-0.55501
0.456671
-0.577947
0.188466
-0.556217
-0.441664
-0.29942
0.148793
0.134131
0.316188
-0.0605981
-0.667092
0.435837
-0.876408
-0.447008
0.498934
0.551395
-0.185213
-0.392343
0.875861
-0.692584
0.322199
0.0523927
0.379655
0.154357
0.338238
0.153463
0.579419
1.00807
0.290506
0.930493
-0.0957833
0.589178
0.142252
-0.352492
0.488536
-0.522131
0.248611
-0.173054
-0.887786
0.52064
0.69801
-0.974879
-0.470455
-0.0603964
-0.815169
-0.172585
-0.411107
-0.756923
0.734524
-0.789231
-0.699318
-0.269056
-0.312534
0.120104
-0.584078
0.0725861
0.289801
0.721222
0.430762
0.383458
-0.688817
0.0992064
0.0206458
0.264977
0.762348
-0.209368
0.268781
-0.342895
-0.842343
-0.740553
0.189472
-0.921305
0.322008
-0.984815
0.476129
-0.347642
-0.702793
0.518464
-0.97172
-1.00238
0.229787
0.301431
0.978138
0.0735908
0.289692
-0.915081
0.993248
0.402549
-0.330893
-0.826691
-0.762363
-0.801412
0.544578
-0.437293
-0.625454
0.313952
0.060075
0.357886
-0.773106
0.138542
0.526052
0.303618
0.226191
-0.625788
-0.130588
0.903055
0.431231
-0.383222
0.494938
0.873634
-0.511676
-0.908198
0.264455
0.630555
0.33883
0.397691
-0.48694
-0.460021
-0.177465
-0.402769
-0.466341
-0.215232
0.587468
-0.763047
0.934396
-0.439548
0.3186
0.0818445
0.820225
-0.282516
-0.97046
0.178424
0.366929
0.512917
0.938885
0.756927
0.440066
0.913974
0.830985
0.706996
0.897468
0.127181
-0.376683
-0.96927
0.535702
0.034752
-0.855149
0.423308
0.666647
0.635296
-0.0435864
-0.873629
-0.856167
0.142345
0.132229
-0.708034
-0.0699258
-0.355193
-0.0164929
0.559012
-0.870925
0.94265
0.158933
-0.0964975
-0.782049
0.0232539
0.0654411
0.784779
0.324475
-0.732376
0.789458
0.216791
0.464893
0.0908813
-0.400305
0.616998
-0.0539175
0.803187
-0.136044
0.0680538
0.853788
0.252239
0.188538
0.0335964
-0.258324
-0.272692
0.203535
0.398638
0.572338
-0.798982
-0.491399
0.39681
6.32072e-05
-0.24234
0.577023
0.474874
0.04749
0.375795
0.941953
-0.01094
0.214563
0.130247
-0.546708
0.980937
0.953095
0.572333
-0.21775
0.712271
-0.0687564
0.609777
-0.0391975
0.979988
-0.441175
0.0538829
-0.3572
-0.30142
0.165405
0.160989
0.760727
-0.792579
-0.663966
-0.912008
0.30314
-0.119646
0.967492
-0.243753
-0.931663
-0.709967
0.176203
0.230141
0.297445
-0.761183
0.00566086
-0.353323
0.0519753
0.120334
-0.806841
-0.00810633
0.512304
0.906046
-0.527093
-0.889602
0.166599
-0.261665
0.733252
0.553362
0.643906
-0.982253
-0.731497
0.0730992
0.500956
-0.618027
0.81807
-0.64116
-0.764657
0.14982
0.166001
0.549708
0.501343
0.728734
0.225606
0.377711
-0.389767
0.268847
-0.724523
-0.783948
0.682435
-0.108543
0.498088
-0.648
-0.236964
0.732473
0.856803
-0.815815
0.743995
-0.841986
0.181786
-0.584471
-0.119905
0.0184907
0.190661
0.902939
0.849167
0.170793
0.331005
-0.673305
0.511643
0.104616
-0.624721
0.358243
-0.817418
0.161143
-0.796639
0.793569
-0.161106
-0.822872
-0.489613
0.890544
0.859345
-0.0858373
-0.626279
-0.996383
0.110286
-0.295889
0.174234
-0.969748
-0.476742
-0.259271
-0.547179
0.289056
0.666458
-0.463849
-0.735493
0.0218643
-0.589453
-0.85689
0.816699
0.318104
-0.0860454
-0.481569
-0.497785
0.0496911
0.220967
0.4859
0.479358
0.105551
0.0896097
-0.979469
-0.119688
0.0113077
0.308
-0.419546
0.633712
-0.759745
0.432612
0.474343
-0.10253
0.822558
0.906622
-0.447249
-0.132868
0.786749
-0.157261
0.760273
0.608614
0.735226
-0.0772243
0.822408
-0.858798
0.954039
-0.057645
0.484509
-0.698807
-0.285317
-0.418012
0.350173
0.741711
0.289581
-0.338535
-0.250991
-0.545368
0.546273
0.0849731
-0.798415
0.38103
0.294451
-0.431791
-0.661533
0.983386
-0.0112977
-0.35773
-0.931165
-0.0785647
-0.833289
0.959909
-0.163073
0.142385
0.328858
0.850323
-0.688032
-0.800767
0.448686
0.554276
0.0512365
0.641279
0.807166
-0.0631967
0.581714
-0.401769
0.483217
-0.203317
-0.972824
-0.320543
-0.919292
0.759589
0.0842317
0.431309
-0.237852
-0.00115419
0.0389058
-0.49253
-0.669669
0.448249
0.257834
-0.132199
-0.407349
-0.815344
-0.144949
0.240263
0.666236
0.831111
-0.266821
0.710548
-0.70362
-0.0600034
-0.390906
0.4841
0.766686
0.770216
-0.94507
-0.692227
-0.747186
0.0233539
-0.552938
-0.900929
-0.488843
-0.881583
0.417368
-0.318961
0.408243
0.788712
0.135428
0.773907
0.810473
0.163207
0.768397
0.498569
-0.428622
-0.236547
0.252844
-0.260763
-0.332036
-0.638935
0.128915
-0.816304
-0.014761
0.203846
0.640034
-0.42
0.21
0.45
0.49
-0.94
-0.25
-0.74
-0.87
-0.52
0.92
-0.21
0.18
0.89
-0.95
-0.73
0.8
0.98
-0.9
-0.73
-0.15
0.28
-0.1
0.54
-0.65
-0.81
-0.91
-0.02
0.82
-0.8
-0.99
-0.13
0.58
0.53
0.46
0
-0.62
-0.67
-0.99
0.56
0.65
0.36
-0.79
0.57
-0.56
0.61
-0.25
0.9
0.65
-0.99
0.18
0.15
-0.88
0.19
-0.04
0.41
-0.24
-0.95
0.07
-0.37
-0.19
0.57
0.68
-0.69
-0.46
0.35
0.78
-0.04
-0.92
0.3
-0.56
-0.87
0.11
-0.99
-0.59
-0.87
-0.02
-0.86
0.58
0.54
0.09
0.08
-0.04
-0.55
-0.26
0.33
0.43
0.25
-0.89
0.84
-0.32
0.8
0.02
-0.48
0.74
-0.85
-0.62
-0.15
-0.26
-0.32
-0.09
-0.01
-0.62
-0.41
0.58
0.53
0.58
0.66
0.57
-0.75
0.19
0.52
-0.87
0.58
0.3
0.53
-0.81
-0.74
-0.66
-0.89
-0.71
-0.76
0.92
0.11
0.66
0.69
0.81
-0.53
0.24
0.31
-0.83
0.6
0.5
-0.49
0.47
-0.62
0.77
0.48
-0.93
0.5
-0.44
0.19
-0.13
-0.02
-0.66
-0.65
-0.97
-0.38
-0.09
0.67
-0.07
0.12
-0.18
0
0.79
0.27
-0.08
-0.1
-0.17
-0.87
-0.13
0.12
-0.45
0.33
-0.21
0.43
0.31
-0.62
-0.32
-0.45
0.48
-0.56
0.28
-0.35
-0.46
0.83
-0.03
0.34
-0.74
0.33
-0.03
0.7
0.8
-0.72
-0.83
0.06
0.9
0.11
0.26
0.06
0.69
-0.9
-0.35
0.81
-0.69
-0.11
0.95
0.8
-0.24
-0.06
-0.09
-0.48
0.42
-0.31
-0.32
0.45
0.39
-0.87
0.56
-0.03
0.06
-0.21
0.38
0.62
0.47
0.62
0.76
0.76
-0.51
-0.71
-0.89
-0.76
-0.41
-0.16
-0.75
-0.97
0.17
-0.86
0.19
-0.21
-0.32
-0.45
-0.28
0
0.43
-0.37
-0.34
-0.8
0.27
-0.96
0.91
-0.21
0.48
-0.12
-0.2
-0.5
0.1
-0.28
-0.31
-0.72
0.71
0.88
0.85
-0.08
-0.68
-0.76
-0.02
0.53
0.48
0.66
-0.73
-0.33
0.2
0.78
0.32
0.37
0.67
-0.24
-0.91
-0.35
0.96
0.85
-0.18
-0.21
0.84
-0.05
-0.18
-0.5
-0.55
0.87
-0.73
0.56
0.09
-0.56
0.83
-0.9
-0.67
-0.67
0.08
0.9
0.55
-0.1
0.95
-0.8
-0.58
-0.94
0.53
-0.84
-0.7
0.01
0.45
-0.03
0.88
0.34
-0.98
-0.21
-0.57
-0.51
-0.32
-0.72
0.94
0.54
-0.86
0.01
0.38
0.31
0.7
0.82
-0.33
0.92
0.77
0.16
-0.03
0.39
-0.38
0.91
-0.63
-0.8
0.81
-0.68
0.36
-0.2
0.55
0.18
0.41
0.7
0.51
0.01
0.48
-0.56
0.23
0.59
0.27
-0.01
-0.08
0.82
0.32
-0.36
0.37
-0.32
-0.95
0.97
-0.43
0.78
0.29
-0.85
-0.73
-0.85
-0.59
0.2
-0.76
-0.38
-0.08
-0.69
-0.23
-0.64
0.54
0.61
-0.03
-0.81
0.21
-0.48
0.62
-0.98
-0.24
-0.77
-0.16
0
0.59
0.34
0.73
-0.66
0.08
-0.13
0.92
-0.29
0.38
-0.73
0.18
-0.64
0.82
-0.86
-0.48
0.62
-0.67
0.87
0.16
-0.24
0.88
0.2
0
-0.208798
-0.555961
0.922355
-0.385491
0.551193
-0.975317
-0.888012
0.0601727
-0.328289
0.529581
0.151465
-0.360991
-0.0653679
0.0462734
0.794973
0.941585
0.33103
-0.325549
-0.661791
0.948467
-0.546614
0.218702
-0.0777296
0.978835
0.661435
0.516711
-0.400091
0.676927
0.0623847
0.378858
0.400323
0.831968
0.809233
0.288686
0.274276
0.951237
-0.278721
0.257166
0.546803
0.0817136
-0.971769
-0.616783
0.866683
-0.782824
0.709457
0.850708
-0.910411
0.654232
-0.778691
-0.337852
-0.578798
-0.865961
-0.857645
-0.525491
-0.778807
-0.765317
-0.768012
-0.549827
0.0917107
0.669581
0.801465
0.539009
-0.405368
-0.313727
0.354973
0.801585
-0.29897
-0.665549
0.698209
0.408467
-0.676614
0.958702
-0.81773
0.418835
0.511435
0.556711
-0.670091
-1.00307
0.842385
0.748858
-0.719677
-0.998032
-0.320767
-0.781314
-0.775724
-0.228763
-0.138721
-0.482834
0.886803
-0.698286
-0.351769
-0.356783
0.196683
-0.452824
-0.390543
0.680708
0.899589
0.394232
0.781309
-0.267852
0.299052
-0.427638
0.617725
0.136135
0.213765
0.787832
-0.17006
0.390261
0.751612
-0.332122
0.997979
0.169158
-0.656305
-0.253699
-0.274138
0.629993
0.364214
-0.428901
0.730774
0.0880777
0.714984
-0.100761
0.489943
-0.483542
-0.98117
-0.472711
-0.984734
-0.40926
0.835271
-0.960647
-0.179025
0.726382
0.355065
0.541946
-0.885131
-0.717579
0.137234
-1.00473
0.334452
-0.263498
0.832179
-0.0929038
-0.796898
0.189711
-0.706641
0.529654
-0.0276167
0.505657
-0.351555
0.631626
-0.385948
0.0483127
0.21823
-0.917148
0.215366
0.395418
-0.236558
0.559339
-0.66809
-0.815906
-0.383941
0.680268
-0.00543892
-0.0926649
0.481531
0.0301524
-0.418138
-0.304372
-0.681756
0.16121
-0.914901
-0.794777
-0.566879
0.791499
0.608426
-0.97473
0.765159
-0.719791
-0.329675
0.20606
-0.759411
0.671659
-0.349222
0.220426
-0.611603
0.578494
-0.135568
0.101857
0.793062
-0.652874
0.735314
0.471277
-0.190124
-0.76018
-0.100996
0.463641
0.130041
-0.544217
0.255856
0.286591
0.612466
-0.662968
-0.764515
-0.284396
0.664417
-0.61343
-0.148064
-0.171276
0.680903
-0.787869
0.752946
-0.593423
-0.806747
0.700647
0.803108
-0.339255
-0.0610928
0.0668715
0.646867
0.676297
0.854197
-0.802389
0.857011
-0.563721
0.438959
-0.111262
0.280492
-0.170938
-0.15688
-0.573659
0.854009
0.321575
0.0521847
-0.446187
-0.0703512
-0.794512
0.624613
0.587786
-0.391163
0.0913089
-0.501591
0.828666
0.0168466
-0.642853
-0.773315
-0.332749
0.564033
-0.23525
-0.506973
-0.695716
-0.0653977
0.507795
-0.798773
0.123598
0.275102
0.349947
-0.260475
-0.136689
-0.689065
0.514629
0.0119893
-0.785853
-0.774375
-0.690703
0.758083
-0.913443
-0.635128
-0.162873
0.367509
0.107858
-0.531014
0.221081
-0.195108
0.605897
-0.878486
-0.307282
-0.39555
-0.781173
-0.219454
-0.502547
0.626764
-0.825591
-0.218741
0.245994
0.870043
0.673313
-0.554557
0.438393
0.280897
-0.469258
-0.686846
0.548719
0.09752
0.770686
-0.0615593
-0.279347
-0.379346
0.926876
0.932325
-0.633558
-0.499476
0.0937225
0.432995
0.249947
0.951588
-0.308495
0.407895
0.252087
-0.226894
0.868405
-0.515884
-0.489871
-0.690029
-0.69436
-0.228061
0.227659
-0.695694
0.0174996
-0.883226
-0.0635783
-0.125784
-0.649353
0.685382
0.98073
0.655658
-0.752512
0.451753
-0.389852
-0.0659722
-0.667116
-0.302676
0.599921
0.819854
0.771697
-0.498112
-0.126067
-0.903836
-0.947033
0.295884
-0.754535
0.0738804
0.048944
0.104378
-0.647011
0.298023
0.5439
-0.375633
-0.392627
-0.150158
-0.59043
-0.537382
0.665859
0.727439
0.313174
-0.029308
-0.99089
0.877078
0.525449
1.0301
0.207465
-0.906403
0.39219
-0.539685
-0.058298
0.746401
-0.468599
0.627316
-0.3239
-0.932341
-0.831176
0.871825
0.378268
-0.373763
0.417565
0.268111
0.184499
-0.358142
0.349241
0.419227
0.663526
0.818813
0.536731
0.208975
0.0682358
-0.0715188
0.0913635
0.769648
-0.979619
0.0841538
-0.312887
-0.302042
-0.744036
-0.949281
-1.00473
0.602232
-0.673231
0.240089
-0.722826
0.0374432
0.123342
0.758741
-0.429316
0.0734866
-0.123047
0.445391
-0.184648
-0.593297
0.37419
0.0614301
-0.278856
0.333076
-0.265771
-0.15294
-0.740106
-0.940911
0.350702
-0.339851
0.409942
0.826394
-0.353052
-0.320491
0.381507
-0.0131042
-0.749811
-0.539735
-0.0892192
0.42084
-0.870212
0.841407
-0.0721475
0.169022
0.781412
-0.671965
-0.127522
0.217221
-0.680638
0.432591
-0.811306
0.980185
-0.495915
0.348366
-0.137143
0.501301
0.439312
0.180838
-0.123229
-0.869322
0.482499
0.651262
0.728405
0.665883
0.275973
-0.500937
-0.913297
0.878835
-0.61237
-0.569262
-0.776206
0.00436826
-0.0577126
0.992144
0.945521
0.252819
-0.650516
-0.0526658
-0.394718
0.285294
-0.576961
0.495503
-0.242559
-0.0119335
0.328601
-0.693525
0.909756
-0.760791
0.426986
0.233517
-0.64168
-0.177119
0.684298
0.918607
-0.103845
-0.67697
-0.57847
0.958114
0.752497
0.544291
-0.0639541
-0.720464
0.253343
0.0445525
-0.0624297
-0.304698
0.266644
-0.769298
0.223922
0.244417
-0.964551
0.779252
-0.791597
-0.582505
0.249168
0.318668
-0.747007
0.742778
0.766365
0.300158
-0.155458
0.499483
0.183767
0.0619372
0.875581
-0.135425
0.818348
-0.744198
-0.850353
-0.520576
0.239137
0.249799
0.0746072
-0.141463
-0.393277
0.344964
1.05356
0.455453
-0.24766
0.897988
-0.572586
-0.509953
0.322486
-0.515546
-0.909538
0.640389
-0.725087
0.0565045
-0.358
0.740396
-0.521452
-0.780965
0.910216
0.373952
-0.384499
-0.209862
-0.0730381
0.0722511
-0.432939
-0.198664
-0.641886
-0.821774
-0.529851
0.760426
-0.744513
-0.478154
0.0779792
-0.417975
0.587379
0.402929
0.870191
0.754555
0.895344
-0.110459
-0.0494285
0.445034
0.836251
-0.159277
-0.370739
-0.772726
-0.69121
0.86918
0.512656
-0.743159
-0.489381
-0.160023
0.646793
-0.978688
-0.138772
-0.316932
0.965996
-0.642893
0.330999
0.978798
-0.440746
-0.70929
-0.849535
0.422291
-0.62623
0.620912
0.533432
0.208316
-0.150902
0.345827
-0.772331
0.189147
-0.360002
-0.0613697
0.130631
-0.329121
-0.341956
0.0271548
-1.01792
0.64987
0.0351674
0.720937
0.668242
0.623937
0.349615
-0.589589
0.589905
0.757827
0.812124
0.807802
-0.406054
0.119553
0.76195
-0.763419
0.829602
-0.400609
0.0256447
0.0704265
0.609494
-0.826882
0.0814457
0.784077
-0.791246
-0.89181
0.588241
0.466729
-0.202431
0.746421
-0.300464
0.567026
-0.645348
0.471802
0.66596
0.301897
0.236369
0.898198
0.644985
-0.925711
-0.620706
-0.929299
-0.579539
0.424674
-0.57934
-1.01986
-0.716769
0.0238429
0.280917
-0.178362
-0.752068
0.409125
-0.510961
-0.0512281
-0.839292
0.801064
-0.389277
-0.738678
-0.521264
-0.660977
0.222334
0.211183
0.838853
-0.412677
0.651423
-0.830666
-0.939211
-0.468765
0.982197
-0.68049
0.829763
0.0012604
-0.351019
-0.210222
0.511385
-0.834204
0.0816404
0.659259
-0.84208
-0.360086
0.939372
0.920291
0.821042
-0.477847
-0.314527
-0.370364
-0.482201
-0.561559
-0.775479
-0.312798
0.879848
-0.0405624
0.826907
-0.327388
0.731068
-0.317051
-0.891267
-0.598955
-0.587317
-0.462272
0.750685
-0.592056
0.496179
-0.894326
-0.317501
-1.00185
0.762594
0.963704
0.801249
-0.905768
0.411191
-0.897281
-0.280121
-0.960293
-0.863747
-0.195963
0.131397
-0.231876
0.851305
-0.714545
-0.741666
-0.775985
0.02764
0.330303
-0.0399334
0.422625
-0.906819
-0.522506
0.424399
0.229337
-0.457894
0.850202
0.250195
-0.633855
0.893666
-0.00737371
0.149358
-0.91603
-0.653921
-0.131197
-0.267055
0.825256
-0.315003
0.0354628
-0.143662
0.80219
0.550601
-0.113292
-0.6214
-0.915758
-0.467097
-0.832912
-0.859413
0.382204
0.136101
-0.0408231
0.227646
-0.465641
-0.469151
-0.927587
0.655897
-0.751047
-0.281596
0.0746283
-0.142563
-0.268227
-0.720295
0.569728
-0.592903
-0.508917
0.130273
0.718267
-0.693925
-0.276569
-0.406542
-0.356569
0.927118
-0.664183
-0.589512
0.5319
0.873155
-0.0362167
-0.252707
0.481106
-0.0176184
0.434848
0.294136
0.911143
-0.816036
-0.652768
0.332398
0.156249
0.828571
-0.843323
-0.34156
-0.558042
0.909249
0.833219
0.916875
-0.0756713
-0.175152
0.14
0.17
-0.74
-0.46
-0.3
-0.56
-0.8
-0.74
-0.46
-0.8
-0.25
0.59
0.72
0.41
-0.41
0.6
0.65
0.22
-0.87
0.71
-0.82
-0.27
0.83
0.21
0.32
0.2
-0.84
-0.35
0.81
-0.25
0.33
-0.18
-0.45
-0.76
0.49
0.84
0.18
0.33
-0.55
-0.91
0.16
0.27
-0.68
-0.86
0.71
-0.27
0.96
0.52
0.51
0.4
0.3
0.36
0.84
-0.82
0.41
-0.98
-0.91
0.93
0.83
0.01
0.36
-0.47
0.46
-0.24
-0.12
-0.29
0.36
0.51
0.19
-0.53
-0.74
0.75
0.99
-0.54
-0.35
-0.39
0.48
-0.83
-0.82
-0.9
0.4
0.49
-0.89
-0.12
-0.68
0.18
-0.54
-0.86
0.15
-0.64
0.35
-0.49
-0.18
-0.6
-0.01
0.44
-0.86
-0.76
0.86
-0.5
-0.11
-0.71
-0.37
0.28
-0.99
0.22
-0.08
0.68
0.95
0.82
-0.44
0.57
-0.1
0.77
0.27
0.04
0
0.82
0.68
0.06
-0.63
-0.41
0.97
0.65
0.75
0.44
0.01
0.94
-0.21
-0.56
-0.51
0.34
-0.04
0.85
0.99
-0.69
0.92
0.03
0.18
0.67
-0.42
0.1
0.92
-0.49
0.35
0.19
-0.65
-0.12
0.78
0.49
-0.4
0.92
-0.3
-0.93
-0.53
0.22
0.45
0.37
0.4
-0.05
0.08
-0.79
-0.82
-0.08
-0.54
-0.79
-0.7
-0.89
0.61
0.26
-0.13
0.17
0.22
-0.3
0.91
-0.58
-0.42
0.96
0.66
0.06
-0.01
0.52
-0.13
-0.2
-0.09
0.48
0
-0.06
0.05
-0.48
0.5
-0.88
0.05
0.77
0.32
-0.63
-0.02
-0.67
-0.78
-0.1
-0.92
0.28
-0.74
0.05
-0.76
0.89
0.57
0.74
-0.16
0.61
-0.64
0.2
0.41
0.22
0.56
0.38
0.56
-0.82
0.92
-0.8
0.43
0.84
-0.9
0.38
-0.45
0.95
0.11
0.78
-0.47
0.82
0.25
0.2
-0.25
0.74
0.06
0.83
-0.58
-0.36
0.42
-0.41
-0.11
-0.07
-0.01
0.25
-0.7
0.18
0.92
-0.64
0.66
0.46
0
-0.36
-0.36
0.58
-0.88
-0.68
0.85
-0.14
-0.81
0.57
-0.76
-0.05
0.69
0.15
-0.11
0.24
0.8
0.65
0.68
-0.82
0.46
-0.99
0.9
0.36
-0.72
-0.29
0.33
-0.39
0.3
0.98
-0.97
-0.43
-0.86
0.54
0.15
0.95
0.94
-0.21
0.73
0.9
0.32
0.76
-0.6
-0.44
-0.38
-0.48
-0.15
0.02
0.76
0.61
0.09
0
0.12
0.32
0.53
-0.05
0.72
-0.88
-0.3
-0.31
0.81
-0.8
-0.45
-0.93
0.36
0.14
0.25
-0.56
-0.25
-0.72
-0.93
0.12
0.41
0.99
0.71
0.48
-0.45
-0.3
0.47
0.59
-0.62
0.75
-0.84
-0.06
0.97
0.51
0.22
0.71
0.62
-0.09
0.02
-0.45
0.76
0.18
0.65
-0.56
0.51
-0.34
-0.66
-0.48
0.82
0.89
0.16
0.18
-0.86
-0.14
-0.94
-0.52
-0.16
-0.3
-0.31
-0.87
-0.46
-0.57
-0.84
0.09
0.7
-0.5
-0.15
-0.7
0.71
-0.16
-0.3
0.96
0.5
0.44
-0.82
-0.85
-0.15
-0.76
0.61
-0.74
-0.41
-0.62
0.84
-0.31
0.31
0.95
0.04
-0.02
-0.08
0.18
-0.08
-0.61
-0.42
0.61
0.52
0.17
-0.18
-0.52
-0.86
0.29
0.88
-0.37
0.94
0.29
-0.76
0.11
-0.91
0.62
-0.54
-0.01
0.39
-0.64
0.26
-0.91
0.34
-0.78
-0.11
0.11
-0.2
-0.68
-0.62
-0.61
0.69
-0.9
-0.02
-0.12
0.82
0.55
0.23
0.31
0.2
0.91
-0.21
0.93
-0.24
0.56
-0.4
0.25
0.14
-0.42
-0.79
0
-0.55
0.5
0.51
0.66
-0.28
-0.02
-0.727858
-0.535715
0.854347
0.846609
-0.0696335
-0.77453
0.655968
-0.710717
-0.0304049
0.446626
0.0276507
0.201425
-0.654949
0.124512
-0.984096
-0.971806
-0.417511
-0.931675
-0.715748
-0.598068
0.344626
0.901622
-0.103226
-0.990444
0.409041
-0.375918
0.36188
-0.0173198
0.831334
-0.281091
-0.200726
0.4801
-0.0771583
0.782207
0.288127
-0.181227
-0.652669
-0.773874
0.292255
0.936229
-0.327467
-0.781947
0.643506
-0.606765
-0.638017
0.00864281
-0.71565
-0.91366
-0.223361
-0.44238
-0.948806
0.396647
-0.947928
0.402744
-0.285869
0.553302
-0.824092
0.849544
0.811207
-0.985496
-0.92437
0.180583
-0.121254
0.460813
0.191766
-0.461813
-0.483297
0.149424
0.335026
0.45001
0.48961
-0.319139
-0.163283
0.576014
-0.422129
-0.988629
0.637146
0.66342
-0.803395
0.198262
0.820249
0.346482
-0.872093
0.434153
0.0529958
0.0411935
0.034566
-0.198601
-0.233293
0.632731
0.974712
0.175149
0.676608
-0.447054
0.375342
-0.281703
-0.793267
-0.648003
-0.194916
0.359246
0.901912
0.428892
-0.0494943
-0.938397
0.834569
-0.64535
-0.464664
0.569395
0.213975
0.435393
-0.592876
0.0908895
-0.813536
0.227167
0.66047
0.379691
0.490794
0.0440309
-0.834381
0.260758
0.515639
0.234299
-0.548275
-0.0676524
-0.192589
0.323729
0.843871
-0.0719688
-0.492059
-0.482365
0.259865
-0.369501
-0.0509532
0.852306
-0.832576
0.596757
-0.273975
0.569541
-0.956453
0.897771
-0.626577
0.641358
-0.300635
0.439956
-0.508648
0.352975
-0.0313227
0.336331
0.967528
0.947001
0.419028
0.135202
-0.0360722
-0.199956
0.631716
0.778811
0.106714
-0.073004
-0.0350221
0.737572
-0.885023
-0.973438
0.403754
-0.298702
0.440253
0.386876
-0.258452
-0.90172
0.371855
0.209038
-0.272314
0.750727
0.0872512
0.875402
-0.412302
0.867885
0.484138
0.0929058
-0.276094
-0.261268
0.210066
0.94378
0.392671
0.265731
-0.701554
-0.124452
0.0810593
-0.990337
-0.767641
-0.534017
0.0681611
-0.908823
0.143882
0.40387
0.16484
0.336174
-0.457558
-0.635409
-0.882914
-0.619658
0.27234
-0.706197
0.276528
0.900817
-0.713467
-0.331221
0.513717
-0.345392
0.380914
-0.782001
0.601345
-0.0391682
0.351121
0.490934
0.0708655
-0.722406
0.0728879
-0.699939
-0.237052
0.61532
-0.18204
-0.414146
0.318573
0.585343
-0.445771
0.561103
-0.707675
-0.0374754
-0.76655
0.351174
-0.906469
-0.498611
-0.000600131
0.320683
-0.567333
-0.0241282
0.35674
-0.183533
0.898056
-0.998925
0.251701
0.400327
0.873306
-0.279212
-0.229449
-0.38257
0.139717
0.611865
0.915248
0.242994
-0.602436
-0.306032
-0.08228
-0.690557
-0.796614
0.136546
0.457499
-0.764694
-0.602165
0.755913
-0.0402164
0.344894
-0.532209
0.759016
-0.752059
-0.208191
-0.0497038
-0.727943
-0.0211217
-0.846817
0.439735
-0.835885
-0.316831
-0.748011
-0.0244175
0.220658
0.949872
0.067813
0.432298
-0.887917
-0.912963
0.314947
0.643779
-0.803279
0.858645
0.558157
-0.585981
-0.100701
0.00553247
-0.769812
-0.229399
-0.864764
0.769671
-0.958713
0.122735
0.490394
-0.90357
0.589651
0.183371
0.806744
-0.133607
-0.253619
-0.341662
0.885062
0.220144
0.950171
-0.262741
0.167303
-0.389391
-0.848317
-0.570842
0.401732
-0.535821
-0.925238
0.857466
0.735275
-0.933117
-0.355411
-0.944051
-0.833302
0.115895
0.271842
1.00842
0.493394
0.555689
0.0473586
0.545773
0.0427505
0.0853654
0.816661
0.558256
-0.246555
0.639026
0.6818
0.0307556
0.255737
0.89143
-0.26853
-0.0273747
0.729222
0.625898
-0.845616
-0.0817843
0.0262943
-0.477909
-0.860641
-0.164514
0.490495
-0.00201485
0.256398
0.932286
-0.478622
0.9906
-0.265658
-0.761386
-0.111632
-0.823937
0.984146
0.304463
-0.100801
0.72454
-0.162012
-0.416396
-0.0687354
-0.904412
0.0719371
0.941008
0.631144
0.186911
0.85624
-0.429846
0.419211
0.614899
0.751965
-0.899648
-0.980042
-0.871158
-0.565733
-0.228343
0.20671
-0.861695
0.0531624
0.368927
0.949546
0.767545
0.584312
-0.665607
-0.622631
0.948541
-0.595868
0.210787
-0.729858
-0.793149
0.181359
0.681384
-0.106311
-0.498777
0.0271294
0.0311754
0.151488
-0.394169
0.379259
-0.354961
0.38583
0.631595
-0.00289658
-0.670991
-0.0173303
-0.880255
-0.859911
0.187989
0.34018
-0.502655
0.0581719
-0.373357
0.698496
-0.753271
0.813661
0.365689
0.478774
-0.669548
0.845281
-0.353619
0.650713
0.371199
0.906976
-0.85813
-0.61253
0.937165
0.474454
-0.288065
-0.645192
-0.525836
0.659431
0.104405
-0.321996
-0.349106
-0.516726
-0.424471
0.65586
-0.794284
0.459003
0.953074
-0.176664
0.0392271
-0.30112
-0.52057
0.148115
0.0882903
-0.791048
-0.828668
0.518975
-0.776979
0.66388
0.181586
-0.185655
0.0959657
0.637763
-0.398919
-0.45988
-0.170049
-0.205063
-0.739195
-0.500471
-0.295648
-0.718794
-0.334935
0.565463
0.180409
-0.139494
0.487777
0.163435
0.922897
-0.771271
0.289362
0.570955
-0.456519
-0.125223
-0.363034
0.0299759
-0.605342
-1.00142
0.235693
1.03321
0.399829
0.532243
1.0859
-1.01982
0.420026
1.06055
-0.337008
0.390545
-0.0439961
-0.999879
0.514402
-0.845673
-0.317786
1.04922
0.660223
-0.171871
0.420861
0.431902
0.96483
-0.450801
0.368146
-0.80967
0.476935
0.787673
-0.156164
-0.371668
-0.879195
0.45267
0.530941
0.43397
-0.0813695
-0.471136
-0.808783
-0.293831
-0.26885
0.425054
0.879134
-0.854012
-0.502172
-0.0101175
0.270433
-0.396694
-0.751986
-0.470693
0.287811
-0.054482
0.289864
0.581742
0.227173
-0.220459
0.0205048
-0.204483
0.819047
0.394846
0.499952
-0.427641
0.381923
0.772749
-0.554042
0.895439
0.179656
-0.857016
0.491888
0.488612
-0.892255
-0.4147
-0.893995
-0.164667
0.18958
0.678451
0.471936
-0.274618
-0.403913
0.747788
0.375321
-0.209143
0.312421
-0.467248
-0.0816703
0.0363151
-0.0596895
0.158962
-0.271808
-0.068622
0.899094
0.783419
0.207912
0.23286
0.115042
-0.579616
0.81048
-0.864151
0.134759
-0.723376
-0.430596
0.189452
0.686577
-0.673893
0.501831
-0.978289
-0.749102
0.679146
0.10151
0.516344
0.193878
-0.907283
-0.756075
0.288567
0.150051
-0.190336
-0.472472
0.325059
-0.171412
0.262822
-0.27171
-0.607241
-0.281037
-0.16355
0.367785
-0.634893
0.236353
-0.161991
-1.05728
-0.569345
0.746298
0.396682
0.18331
-0.669123
0.732693
0.354514
-0.60245
0.985288
0.934757
-0.658337
0.691886
-0.719765
-0.755812
0.359708
0.408437
-0.543098
0.265935
-0.40984
-0.39159
-0.257393
0.445592
-0.331904
-0.180621
-0.0844854
-0.549903
0.153933
-0.203199
-0.625211
-0.527089
0.373681
0.13899
0.240509
0.180399
0.724413
0.380189
0.329263
-1.0585
-0.878789
0.893751
-0.934434
0.859837
-0.555589
-0.873258
0.0721404
0.593319
-0.25201
0.986958
0.347911
0.00171589
0.491076
0.962521
0.15161
0.191254
0.40087
-0.0949247
0.12998
-0.700936
0.849812
-0.0729057
-0.613146
0.457246
-0.900133
0.360629
0.638938
-0.611967
-0.328768
0.13119
0.91647
0.277585
0.907472
0.576952
0.303248
0.609879
-0.721773
-0.0930882
-0.93502
-0.401649
0.938121
0.602691
-0.811087
0.0920002
-0.538769
-0.192975
-0.76822
-0.621221
-0.950838
-0.117267
-0.340107
0.637119
-0.555632
-0.877067
0.560755
0.0434788
-0.779436
0.62938
-0.523645
0.13769
-0.800388
0.789123
0.884142
0.322322
-0.579576
0.619452
-0.718829
0.534129
0.380103
-0.232779
-0.400395
-0.22074
-0.846577
0.597071
0.936688
0.738537
0.810157
0.694231
0.248363
0.0729093
0.85455
0.728344
-0.106085
0.195956
-0.561088
-0.00694101
-0.0975754
0.120626
0.0416174
-0.617705
0.979591
0.516059
0.767178
0.162701
-0.0789402
-0.139312
-0.106538
0.213447
0.8157
-0.387514
0.0443803
0.531622
0.374178
-0.676388
0.443685
0.743728
-0.180673
0.297259
0.511469
-0.81783
-0.699089
-0.0628002
-0.189829
-0.153086
0.787914
0.727992
0.700093
-0.343052
0.401085
0.701243
-0.709831
-0.197555
0.69363
-0.917302
-0.399705
0.448956
-0.309396
0.769666
0.57812
0.940154
-0.418478
0.701778
0.442167
0.564271
0.757318
-0.57032
0.091452
-0.637822
0.695062
-0.118344
0.231988
0.807696
0.935846
-0.601559
-0.952292
0.473176
-0.199041
-0.000798609
-0.849715
-0.975645
0.360003
0.642682
0.118809
-0.822918
-0.510561
-0.406272
-0.890673
0.327259
-0.888531
-0.68783
-0.699089
0.3072
-0.439829
0.176914
0.767914
-0.662008
-0.0399066
0.516948
0.111085
-0.848757
0.360169
-0.597555
-0.12637
0.142698
0.440295
0.338956
0.520604
0.959666
0.15812
-0.249846
-0.178478
0.781778
0.682167
0.824271
0.817318
-0.23032
0.791452
0.0421783
-0.984938
-0.378344
-0.238012
-0.922304
0.195846
0.868441
-0.632292
-0.0768239
-0.149041
0.779201
-0.779715
-0.695645
0.220003
0.642682
-0.411191
-0.442918
-0.360561
-0.446272
0.369327
-0.552741
0.521469
0.78217
0.470911
-0.1228
-0.679829
0.0869136
-0.412086
-0.362008
0.600093
-0.993052
-0.638915
-0.128757
-0.659831
-0.737555
-0.13637
0.482698
0.360295
0.988956
0.230604
-0.790334
0.73812
0.610154
-0.948478
0.521778
0.442167
0.174271
-0.922682
-0.79032
0.691452
0.512178
0.565062
-0.468344
0.961988
-0.152304
-0.714154
0.418441
-0.782292
-0.766824
-0.769041
-0.420799
-0.409715
0.0743552
-0.789997
-0.677318
-0.921191
0.617082
0.859439
0.05
-0.12
0.85
0.01
0.8
-0.46
0.98
-0.72
-0.24
-0.94
-0.85
0.86
-0.04
-0.15
-0.33
-0.49
-0.48
-0.6
0.56
0.4
0.21
0.72
-0.41
-0.93
-0.72
0.89
-0.64
-0.98
0.72
-0.5
0.26
0.9
-0.86
-0.25
-0.94
-0.15
0.93
0.54
-0.12
0.32
0.71
0.66
-0.51
0.25
0.89
-0.49
0.76
0.92
0.46
0.29
-0.24
0.32
0.18
-0.67
-0.29
0.5
-0.49
-0.07
0.27
0.71
-0.75
0.82
0.44
-0.61
-0.83
0.62
-0.67
0.2
-0.06
-0.9
-0.27
-0.07
-0.82
0.8
-0.45
-0.17
-0.77
-0.28
-0.01
0.56
0.22
0.46
-0.57
-0.54
0.74
-0.53
0.57
0.27
-0.21
0.39
0.76
-0.45
0.81
0.24
-0.03
0.33
0.4
-0.57
0.56
0.79
0.94
0.77
0.05
0.44
-0.22
-0.01
0.14
0.82
-0.37
-0.52
-0.63
0.07
0.1
-0.37
-0.02
0.18
-0.23
-0.77
0.95
-0.97
0.47
0.92
-0.81
0.74
-0.51
0.58
0.06
-0.92
0.53
0.72
-0.59
-0.02
-0.1
0.12
0.22
0.83
-0.09
-0.3
-0.13
-0.26
0.87
0.74
0
-0.89
-0.46
-0.82
0.3
-0.5
0.57
0.3
-0.56
0.05
-0.64
-0.85
0.39
0.76
0.12
-0.4
0.38
-0.45
0.06
0.03
0.31
0.08
0.83
0
-0.65
0.05
-0.22
-0.34
-0.21
-0.93
-0.11
-0.24
0.8
-0.76
-0.6
-0.56
0.42
-0.3
-0.06
0.68
-0.96
-0.74
-0.3
0.29
-0.32
-0.58
-0.3
0.68
-0.9
0.32
-0.39
-0.85
-0.49
0.7
0.6
-0.46
0.37
0.31
-0.31
-0.06
-0.56
0.55
-0.27
-0.9
-0.17
0.04
-0.61
0.36
0.13
0.38
0.76
-0.01
0.57
-0.8
0.2
0.53
0.11
-0.24
-0.67
0.21
0.13
0.6
-0.09
0.84
-0.29
-0.58
-0.51
0.83
0
-0.86
0.08
0.2
0.13
-0.72
0.2
0.23
0.22
-0.98
-0.02
-0.48
-0.29
0.41
0.75
0.79
0.65
-0.3
0.37
-0.28
0.58
0.84
0.23
-0.51
-0.78
0.21
0.51
0.18
-0.59
-0.27
-0.71
0.93
0.07
-0.66
0.85
-0.25
0.3
0.22
0.61
-0.37
0.95
-0.38
-0.91
0.78
0.51
-0.69
0.4
-0.72
-0.96
0.54
0.52
-0.72
0.43
0.97
-0.25
0.77
0.53
0.92
-0.26
0.51
0.88
0.48
-0.81
0.53
-0.45
0.35
0.05
-0.5
0.19
-0.29
-0.26413
0.693612
0.741606
-0.0419225
0.792536
0.346381
-0.926832
-0.150546
-0.363491
-0.0554596
0.545643
0.821518
0.371999
0.945597
-0.552853
-0.201637
0.0649343
0.0119552
0.0669508
0.472227
0.703582
0.812226
0.20644
0.417676
0.549195
0.575604
-0.776342
0.254847
-0.824395
-0.673773
0.478954
-0.648448
0.38502
-0.852731
0.199783
0.0707601
-0.0949728
-0.688028
0.370696
0.113937
0.575709
-0.380988
-0.107293
0.24352
-0.183662
-0.581354
0.547032
0.865149
-0.616279
-0.0429408
0.183982
-0.0942719
0.677339
-0.997887
0.567128
-0.366574
0.179128
0.340605
-0.399763
-0.294627
-0.902564
-0.56174
0.335275
-0.676341
-0.427922
0.371747
-0.442311
0.59918
0.771681
-0.96316
0.507326
0.208545
0.691879
-0.026587
-0.519581
0.465522
0.246953
-1.00017
-0.938073
-0.904471
0.840978
-0.150198
-0.0935233
-0.464306
-0.369199
-0.684354
0.356209
0.118285
-0.370304
0.055923
-1.00641
0.671272
0.248986
0.927172
-0.652829
0.520365
-0.205346
0.578698
0.366836
-0.386787
-0.843158
-0.697742
0.680119
0.727581
0.337932
-0.279756
0.874524
-0.210261
-0.2574
0.342888
0.946581
0.559991
0.268044
0.444525
-0.163314
0.261445
-0.865731
0.272112
0.916526
0.59952
0.647981
0.863605
0.963661
-0.860697
-0.801
-0.758038
-0.494442
-0.932875
0.304597
0.393811
0.439868
-0.396081
-0.399542
0.076054
0.563356
-0.980018
-0.0349999
-0.797447
0.798791
0.447193
-0.79517
0.965534
-0.934751
0.107417
-0.374836
-0.536314
-0.879052
-0.930628
-0.554081
0.688588
0.20204
-0.404189
-0.878449
0.916924
0.0259349
-0.359387
-0.0911874
-0.595909
-0.498687
-0.261132
-0.844842
0.0159061
0.278268
-0.846994
0.118758
0.289928
0.309519
0.267502
0.759547
0.377952
-0.304049
0.641192
-0.9573
0.108334
-0.512886
0.463817
0.303886
-0.458002
0.647146
-0.565505
-0.372765
0.947454
0.626528
-0.251895
-0.422206
0.665244
-0.712198
-0.7316
-0.899851
-0.54289
0.0862087
0.523606
0.41907
0.610093
0.584793
0.793492
0.175217
0.564745
0.532935
-0.876819
0.832078
0.14807
0.59663
-0.786497
0.416784
-0.824466
0.225064
0.332165
0.68033
-0.857991
0.677695
-0.481118
0.962311
0.53156
-1.03243
-0.518175
0.200094
0.100255
0.805241
-0.589239
-0.934952
-0.365288
-0.352626
0.905659
-0.237009
0.299187
0.656781
0.242643
0.020688
-0.866517
-0.434316
-0.026655
-1.00529
0.360709
0.758464
-0.3785
0.720392
0.635009
0.0778484
0.418745
0.9263
-0.0132426
0.806681
-0.536548
0.628284
0.358851
-0.130802
-0.623024
0.58101
-0.279849
-0.666705
0.361534
0.223258
-0.0831728
-0.194563
0.67683
-0.226662
-0.418549
-0.242622
0.180364
-0.438299
0.378136
-0.848921
0.0951926
0.157525
-0.814665
-0.523198
-0.707259
-0.895365
-0.56553
-0.636853
-0.125288
0.321024
-0.788647
-0.51373
0.60712
0.102684
0.425792
-0.989839
0.571088
0.876858
-0.027449
0.621897
-0.161743
0.131373
-0.839056
0.618587
-0.0982202
-0.626191
-0.934043
0.362819
-0.688233
0.33045
0.456651
0.168353
-0.925682
0.0627492
-0.19532
-0.108688
0.345199
0.169829
0.925462
-0.213331
-0.550957
0.838032
0.442845
-0.615609
0.421716
-0.269046
-0.870085
-0.587438
-0.825569
0.318035
-0.758556
0.934768
-0.67248
-0.223141
-0.667855
0.417955
0.497784
-0.652991
-0.958281
0.979158
-0.562324
-0.218829
-0.762462
0.589255
0.729514
0.0181832
-0.669377
-0.283248
-0.755054
-0.0439592
-0.692743
-0.65601
0.87938
0.278548
-0.0860483
0.487793
0.829815
0.62957
-0.492232
0.256546
-0.0672489
-0.975913
-0.652955
0.803501
-0.608266
0.875076
-0.369911
-0.698546
-0.396402
0.0297103
0.835502
-1.09943
0.861821
0.978618
-0.750394
0.241552
-0.505904
-0.750498
0.594401
-0.576199
0.0981257
0.223598
-0.450561
-0.117908
0.558856
-0.299787
0.135625
-0.0643918
-0.287846
0.306079
0.647366
-0.0242957
-0.508348
-0.593068
-0.304198
-0.822882
-0.109599
0.563947
-0.0207568
-0.00893447
-0.252213
-0.918232
-0.545221
-0.298731
-0.158436
-0.447612
0.336384
-0.264445
0.61184
1.00111
0.55263
-0.515445
-0.600237
-0.917162
0.151207
0.553282
-0.566775
0.266315
-0.133504
-0.411244
-0.878753
0.375001
0.602065
0.892674
-0.754343
0.593895
-0.790208
0.292481
-0.300526
-0.288128
-0.828173
-0.846674
0.897861
0.22408
0.847664
-0.750345
-0.428199
0.85414
0.82916
-0.191785
-0.584381
-0.175976
-0.366095
0.654753
-0.248006
0.684414
-0.844521
-0.992474
-0.00210583
0.0460724
0.589355
0.116722
0.770575
0.155227
-0.090969
0.348276
0.321777
-0.0373836
-0.5207
-0.391075
-0.473021
0.0292012
-0.649889
0.626379
0.749859
0.378945
0.373119
-0.688216
-0.899049
-0.631607
-0.70684
-0.477483
-0.0756564
-0.0251269
-0.870807
0.783749
0.368881
-0.386003
0.577522
0.0570845
-0.435994
-0.174935
-0.223611
-0.566789
-0.671889
0.363203
-0.588148
-0.484143
-0.257707
0.0800785
-0.284971
-0.152253
0.713503
-0.4701
0.63792
0.293938
0.715707
-0.678225
-0.882831
-0.710197
-0.568926
-0.992593
0.80193
0.963794
-0.998704
0.608998
-0.889227
-0.732002
0.941551
0.875681
-0.18794
0.121408
-0.272242
0.167134
-0.291825
0.911732
-0.294365
-0.537326
0.5172
-0.660537
0.942887
0.121091
-0.718104
-0.649196
0.686727
-0.477543
-0.101809
-0.92005
0.438665
-0.55415
-0.798242
-0.712635
-0.725938
-0.205369
-0.541094
-0.0172556
0.800032
1.00744
0.128323
-0.267012
0.598313
0.311246
0.552497
0.422936
0.776678
-0.739725
0.241344
0.490233
-0.272171
-0.0703473
0.261048
0.462596
0.766988
0.20838
-0.860178
0.710058
-0.471999
0.696561
0.925587
0.877181
-0.484441
-0.707635
0.372409
0.50996
0.0627562
0.672746
-0.800228
0.280055
-0.574538
0.59393
0.938386
-0.568204
0.310644
-0.8087
-0.409256
-0.769626
0.43869
0.881085
0.772484
0.122845
0.463212
0.274754
-0.978261
-0.414415
-0.0763778
0.843136
-0.0366359
0.597098
-0.840492
0.917478
0.751822
0.251479
-0.474672
0.696793
-0.0788062
0.616078
-0.936953
-0.904755
0.597978
0.0266943
0.267306
-0.540178
-0.673785
0.221797
-0.290235
-0.753496
-0.793874
0.367622
0.577907
-0.194886
-0.674874
0.539954
-0.484959
-0.129629
0.548831
0.970305
-0.194233
0.0326376
-0.748429
0.622042
0.378728
-0.888949
-0.326748
-0.433829
-0.695848
0.841655
-0.423033
-0.129775
0.942743
0.942053
-0.501575
0.361439
-0.153409
-0.561238
0.0496473
0.881748
0.10481
-0.484909
-0.0890215
-0.648029
-0.285916
-0.645254
-0.734926
-0.343607
-0.769501
-0.355195
-0.685688
-0.662344
0.327833
-0.138886
-0.563232
0.355998
-0.32514
-0.890303
-0.809196
-0.549975
0.293237
-0.391038
-0.830776
-0.00312153
-0.968728
0.126121
-0.846619
0.893242
0.935881
-0.488976
-0.0686606
-0.431935
-0.678966
0.130699
0.733068
-0.411639
0.45698
-0.508411
0.914588
0.144701
0.358425
0.338964
-0.483801
0.603808
0.0858175
-0.407724
0.78024
-0.309571
0.375632
-0.33063
0.327286
0.433886
0.672183
-0.356516
-0.459065
0.0826519
-0.174261
-0.627986
0.565801
-0.769556
-0.569596
-0.344228
-0.942187
0.667069
-0.289817
0.326903
0.135091
-0.21689
0.183464
0.34469
-0.937906
-0.34597
0.612621
0.585295
0.833471
-0.0964214
0.357207
0.545168
0.92491
0.845011
0.157686
0.115359
-0.255499
0.827421
-0.246565
0.490584
-0.707492
0.966518
0.434398
-0.0487966
0.841661
0.425263
0.580183
-0.173091
0.19764
-0.861601
-0.436196
0.405123
0.946297
-0.656237
0.984463
-0.502155
-0.650858
0.716503
0.7025
0.801598
0.695086
0.0577416
-0.29942
0.781936
0.696988
0.910689
0.347622
0.725466
-0.890291
-0.515373
0.219298
0.381664
0.474282
0.650066
-0.578678
-0.306298
-0.926784
-0.898052
0.146483
0.909211
0.712605
0.447553
0.16201
-0.952275
0.257258
-0.886272
0.859327
-0.0727409
0.961469
0.62217
-0.519089
-0.9928
0.750171
0.206914
0.507914
-0.142008
-0.909907
-0.293052
0.621085
-0.138757
-0.299831
-0.477555
0.72363
0.522698
-0.489705
0.828956
-0.129396
0.159666
0.91812
0.650154
-0.728478
-0.108222
0.662167
0.394271
0.317318
0.39968
0.861452
-0.727822
-0.914938
0.121656
0.191988
-0.312304
-0.384154
-0.0115593
-0.312292
0.883176
0.620959
0.819201
0.000285443
-0.325645
0.0800033
-0.627318
0.338809
-0.652918
-0.110561
0.0237278
0.469327
-0.952741
-0.528531
-0.0478301
-0.0690893
0.3972
0.380171
-0.263086
0.517914
-0.652008
0.0800934
0.616948
-0.908915
0.391243
0.230169
0.672445
0.22363
-0.677302
0.500295
-0.0110441
0.430604
0.229666
-0.24188
0.770154
-0.918478
-0.278222
-0.267833
-0.175729
-0.442682
0.45968
-0.418548
0.902178
-0.994938
-0.678344
0.551988
-0.322304
-0.194154
0.108441
-0.792292
0.373176
-0.289041
-0.600799
0.770285
0.744355
0.900003
0.212682
0.178809
-0.992918
-0.810561
0.0737278
0.779327
-0.612741
0.851469
0.27217
-0.389089
-0.9928
0.200171
-0.183086
-0.142086
0.627992
0.800093
-0.563052
-0.358915
-0.028757
-0.239831
0.0824454
0.11363
0.782698
0.570295
-0.00104413
-0.589396
-0.230334
-0.77188
-0.229846
-0.978478
-0.778222
0.612167
0.874271
0.0673182
0.60968
0.201452
0.322178
-0.244938
0.661656
-0.178012
-0.552304
0.485846
-0.471559
-0.452292
0.473176
0.760959
-0.000798609
-0.149715
0.0243552
-0.109997
-0.547318
0.298809
0.247082
-0.930561
-0.52
-0.74
0.1
-0.72
0.06
-0.24
0.83
0.06
-0.03
0.76
0.35
-0.29
-0.18
0.66
-0.47
0.65
-0.21
-0.87
-0.68
-0.67
-0.78
0.24
0.58
0
0.88
0.08
-0.25
0.75
-0.26
-0.82
0.54
0.94
0.12
-0.2
0.19
-0.93
0.13
-0.42
0.08
-0.88
-0.95
0.23
-0.93
0.15
-0.27
0.25
0.95
-0.01
0.82
-0.45
-0.06
0.37
-0.31
-0.26
-0.46
-0.91
0.43
0.48
-0.08
0.63
-0.67
-0.11
-0.54
-0.05
-0.14
-0.88
0.54
0.33
-0.31
-0.74
0.79
0.68
-0.72
0.15
0.55
0.45
0.23
0.95
-0.32
0.27
0.64
0.14
-0.2
-0.19
0.04
-0.93
0.51
0.16
0.51
-0.29
0.97
-0.81
0.84
0.23
-0.71
0.87
-0.07
-0.26
0.54
-0.77
-0.77
0.32
-0.64
0.54
-0.37
0.66
-0.52
0.91
0.69
-0.96
-0.79
-0.06
0.91
-0.41
0.49
-0.88
-0.5
0.25
0.48
0.67
-0.17
0.68
0.47
0.06
0.36
-0.38
0.75
0.47
-0.91
-0.82
-0.62
-0.76
0.68
0.6
-0.68
-0.88
0.53
-0.53
-0.35
0.51
-0.09
-0.93
-0.49
-0.6
0.09
-0.46
0.12
-0.25
0.73
-0.41
0.84
0.66
-0.79
-0.08
-0.88
0.85
-0.57
0.42
-0.25
0.79
-0.5
-0.14
-0.65
-0.24
0.81
-0.44
0.65
0.77
-0.14
0.61
0.64
0.15
-0.5
0.56
0.35
0.34
-0.6
0.58
-0.13
-0.9
-0.12
0.33
0.83
0.82
-0.43
-0.37
0.05
0.46
-0.28
-0.68
-0.07
-0.81
-0.53
0.56
-0.12
-0.49
-0.21
-0.42
0.48
-0.8
0.94
0.41
-0.83
-0.64
-0.81
0.68
-0.68
0.42
0.88
0.94
-0.59
0.51
-0.8
-0.61
-0.53
-0.86
0
0.92
0.88
-0.94
-0.98
-0.07
0.1
0.94
0.1
-0.36
-0.47
-0.82
-0.71
0.04
0.36
-0.02
-0.73
0.14
-0.94
0.29
0.82
0.18
-0.26
-0.74
0.05
-0.85
0.84
-0.01
0.4
-0.08
0.19
0.21
0.35
-0.09
0.333728
0.769327
-0.102741
0.171469
0.14217
0.660911
0.6172
0.410171
-0.0230864
0.687914
-0.252008
0.600093
0.986948
0.0510846
-0.928757
-0.619831
-0.0475546
-0.91637
-0.947302
-0.529705
0.0989559
-0.909396
-0.150334
0.65812
0.090154
-0.538478
-0.648222
0.0721675
0.274271
-0.0726818
-0.0603196
0.271452
0.932178
0.385062
0.411656
0.261988
-0.212304
-0.424154
-0.951559
-0.152292
-0.636824
0.0109585
-0.910799
-0.789715
0.864355
0.300003
-0.597318
-0.0311907
-0.742918
-0.210561
-0.0074221
0.557226
0.637777
-0.554185
0.0283816
0.583676
0.161077
-0.49871
-0.67227
0.261169
0.0942489
-0.50958
-0.458507
0.703187
-0.315572
-0.698872
0.742862
0.0469657
-0.119495
0.150614
0.177462
0.533311
0.936616
-0.357006
-0.669561
-0.57255
-0.38937
-0.465616
0.105477
-0.596007
0.858314
-0.860484
-0.147767
0.412418
0.826255
-0.865636
0.42167
1.00022
-0.0748434
-0.719729
-0.216714
-0.764532
-0.842432
0.0124931
0.0551796
-0.49092
0.654814
0.808318
0.449032
0.248978
0.950065
-0.431751
0.967998
-0.692633
-0.241561
-0.550006
0.639447
0.450307
0.599335
0.573623
0.465846
-0.53166
0.470611
0.399207
0.298494
-0.278907
-0.261339
-0.434233
0.370552
0.856232
0.641398
-0.69344
0.232806
-0.681459
0.0999982
0.621347
-0.820726
-0.758149
-0.948533
0.304671
0.712597
0.693784
0.888259
0.915783
-0.935661
0.0287396
0.0644651
0.50311
-0.076389
-0.838843
0.317259
-0.561728
-0.0987166
-0.444485
0.159482
-0.390193
0.503688
-0.705526
-0.841735
0.945509
0.0589346
0.20409
-0.610553
-0.638394
-0.955341
-0.222736
-0.627428
-0.287866
-0.561544
-0.479798
-0.641643
0.937881
-0.653774
-0.582476
-0.169881
0.486473
-0.908622
-0.499131
-0.298545
-0.610326
0.278609
-0.0977651
-0.11534
0.226444
-0.0354248
-0.627092
-0.919336
-0.694927
-0.86034
0.315962
-0.975958
0.491642
0.319702
-0.0355011
0.989983
-0.19748
0.0190752
0.216187
0.454375
0.971293
0.677088
0.769205
0.925762
0.689835
-0.956534
0.0731275
-0.259917
0.751403
-0.372796
0.0889003
-0.160297
0.30591
-0.363388
0.814809
0.596506
-0.393391
-0.295745
-0.473345
-0.809769
-0.667511
-0.484777
-0.345949
0.688513
0.925232
0.891161
-0.68675
0.156894
0.32316
0.363712
-0.0173871
-0.587783
-0.655331
-0.970979
-0.125488
0.391794
-0.637033
-0.199152
-0.0869256
-0.264559
-0.705774
0.0955953
-0.167727
-0.603762
-0.309313
0.476848
0.933846
-0.82716
0.0812886
-0.510247
-0.970198
-0.964258
-0.486377
-0.867768
-0.304351
0.439078
0.204439
0.903323
-0.842449
-0.622796
-0.666076
0.17565
0.466153
-0.530698
-0.244094
-0.698195
-0.897225
0.982111
0.786641
-0.464087
0.048978
0.931638
-0.986462
0.899698
-0.20857
-0.377786
0.386615
-0.276891
0.804571
0.376877
-0.190016
0.0277578
0.35332
0.165835
0.427315
0.29602
0.478029
-0.3308
0.73419
-1.0816
-0.637544
0.740155
0.909758
0.36674
0.174462
-0.163869
0.482628
-0.582795
0.502796
-0.808305
-0.529585
0.70815
-0.701814
1.00083
-0.530589
0.0974406
0.48599
0.435451
-0.518273
-0.853615
-0.940783
0.756687
-0.815819
-0.0827864
-0.834312
0.881199
0.895478
0.327505
-0.109636
0.610107
-0.479884
0.695822
-0.221823
-0.737479
0.259052
0.590827
-0.266843
0.360189
0.468251
0.603422
-0.408155
-0.688686
0.878511
-0.817484
0.21143
0.712504
0.195356
0.105559
0.924161
0.0899791
0.44909
-0.0974105
-0.137462
0.020994
-0.61928
-0.6662
-0.169131
-0.493361
-0.524558
0.835862
0.998768
0.582544
-0.845418
-0.0444357
0.336771
0.303218
-0.709637
0.433418
0.436266
0.74029
-0.927533
-0.600909
0.247552
0.794437
0.369724
-0.0713697
-0.860292
0.781264
-0.0464085
-0.324575
-0.49587
-0.156785
0.607487
0.00527655
0.257385
0.668353
0.694748
0.803228
0.058267
0.603685
-0.138307
-0.787949
-0.434105
0.867272
0.871462
0.620573
-0.109283
0.550786
-0.265859
0.105919
0.525133
-0.882883
0.434147
-0.709824
0.391274
0.585356
0.0221681
-0.771406
0.10186
-0.302565
-0.489975
-0.518975
-0.639496
-0.848847
0.4442
0.462941
0.0916771
0.107008
-1.00299
0.143838
-0.41702
-1.06061
0.224644
0.565812
-0.058189
-1.03795
0.729153
-0.756258
0.879366
-0.764214
0.00263013
0.342577
0.424451
-0.825681
-0.235589
-0.162838
-0.350915
-0.827729
0.550297
-0.543226
0.624727
-0.195841
-0.959475
-0.813072
0.719939
0.641729
-0.958489
0.583146
-0.0497032
0.692247
1.06204
0.115103
-0.217326
0.799785
0.295939
0.0403269
-0.0919275
0.529112
-0.649942
-0.646349
0.450993
0.656022
-0.970439
-0.246532
0.678809
0.566057
0.654419
-0.409352
-0.426314
0.314376
0.10858
0.565726
0.427053
-0.75019
-0.249877
0.619906
-0.45882
-0.0599997
0.0476599
0.241914
0.624504
-0.33094
-0.83505
0.0728725
0.0912347
-0.749438
-0.103354
-0.254624
-0.0866727
-0.0889079
0.830658
-0.699907
0.491466
-0.894092
0.980904
-0.174762
0.505667
0.169528
-0.328832
0.924671
0.0772598
-0.803133
-0.883914
0.934292
0.920894
-0.378837
0.904406
-0.719968
-1.00252
-0.484992
-0.636442
0.562029
-0.200685
0.00723792
-0.571138
0.400053
-0.274368
-0.607006
-0.42431
0.726375
-0.0976115
0.136782
-0.877557
-0.176575
0.333944
0.179879
0.322616
-0.970616
-0.41984
-0.215862
-0.546784
0.860301
0.777641
0.856434
-0.202934
-0.116769
-0.55124
-0.457456
-0.763647
0.349842
0.542833
-0.852353
0.220474
-0.651993
0.596381
0.52694
0.594954
0.572489
-0.352508
-0.450619
0.750228
-0.438824
0.372487
-0.436497
-0.821717
-0.75705
0.140793
-0.731735
-0.934889
-0.235119
0.785722
-0.758893
-0.15204
-0.559435
0.608894
-0.390571
-0.419191
-0.534228
0.177931
0.680219
-0.169465
0.59065
-0.309445
0.948873
0.54701
-0.928951
-0.429816
-0.202009
0.251532
0.383305
-0.946005
0.542698
0.02434
-0.0544509
0.0279688
-0.193271
0.546457
0.546456
-0.467196
0.647516
-0.20214
0.690642
-0.757078
0.190185
-0.648049
0.166146
0.218183
-0.769227
-0.162324
-0.209646
0.956805
0.468442
-0.748867
0.772675
-0.35861
0.667268
0.299723
0.0291411
-0.194965
0.0196364
-0.165566
-0.488571
0.698108
0.768536
0.107809
0.957331
-0.893263
-0.408231
-0.486169
-0.800742
-0.543658
-0.622345
0.261512
0.537558
1.00439
-0.378343
-0.854104
0.454695
0.746785
-0.877291
0.692785
-0.0456543
-0.28321
0.270833
0.672982
0.588662
-0.139169
0.307609
0.676338
-0.589708
-0.402996
-0.805565
0.824903
0.825271
-0.329365
0.697356
-0.237758
-0.564055
0.282873
-0.447992
0.464324
-0.540945
0.741903
-0.791056
0.35484
-0.346073
0.368798
-0.0930784
0.980698
-0.525506
-0.726151
0.616584
0.69016
-0.404446
-0.16994
-0.129502
0.461205
-0.363351
-0.367218
-0.208846
-0.0349277
-0.397888
-0.730949
-0.625251
0.0264426
0.266154
0.822356
0.477442
-0.519683
-0.360835
-0.915923
-0.883812
0.659078
-0.921341
-0.603071
-0.102953
-0.692858
-0.448007
-0.0332415
0.360905
-0.70211
-0.288793
0.722105
-0.151349
-0.853378
0.598125
-0.142584
0.0896863
-1.00032
-0.259372
-0.798107
-0.653853
-0.578083
-0.260825
-0.150935
0.0339986
0.76321
-0.52673
0.453647
-0.743935
-0.731645
-0.527272
0.703956
-0.164538
-0.859128
-0.480415
-0.940546
0.352606
0.663912
-0.49192
0.147659
0.482848
-0.29938
-1.03324
-0.326597
-0.815379
-0.772785
0.945886
0.190564
0.898295
-0.000701938
0.319371
-0.602847
-0.164257
0.663115
1.00894
-0.569237
0.776057
-0.206115
0.690553
0.584674
0.777851
0.983639
0.499578
-0.706143
0.259086
0.0378719
0.49634
-0.351042
-0.0172309
0.780169
0.638729
-0.613826
-0.453513
-0.101504
0.168997
-0.52209
-0.29963
0.704893
0.793794
0.0991205
0.174585
-0.930934
0.131745
0.434617
-0.325985
0.0912699
0.683212
-0.29542
-0.67467
0.206921
-0.191918
-0.596692
-0.158374
-0.894788
0.772052
0.674225
0.0460185
-0.229279
-0.220647
0.506385
-0.318356
0.14028
0.345182
0.495684
0.710243
0.217213
0.0774678
-0.0161585
0.0282612
0.923108
0.422338
-0.792696
-0.579231
-0.199667
-0.028157
0.582845
-0.548984
0.0291339
0.278811
0.0265944
0.893397
-0.560542
-0.709738
-0.486797
-0.0353625
0.0749472
0.503966
0.857962
0.10626
-0.247499
0.926222
-0.940689
-0.7123
0.223016
-0.386749
0.707518
-0.397072
0.732311
0.85011
0.402597
0.151052
-0.516359
0.159997
-0.0551764
-0.69789
-0.160439
0.890889
-0.307009
0.845115
0.505488
-0.174655
-0.578476
0.812372
-0.0674488
-0.116243
0.621339
-0.732725
0.928958
-0.219227
0.78361
0.941178
-0.135153
0.967036
0.52024
-0.699223
-0.715496
0.09263
-0.583313
-0.446063
-0.25355
-0.0730183
0.668984
0.117014
-0.534646
-0.7445
0.569378
-0.314895
-0.0770118
0.124646
-0.515351
-0.945496
0.0323591
-0.0206419
0.30569
-0.215945
0.889786
-0.147252
0.288057
0.0438236
0.736944
0.193728
-0.760673
-0.352741
-0.178531
-0.97783
0.720911
0.3072
0.810171
-0.683086
0.937914
-0.282008
0.0500934
-0.353052
-0.108915
-0.308757
-0.659831
-0.477555
-0.49637
0.282698
-0.559705
-0.491044
-0.849396
-0.130334
0.58812
-0.249846
-0.378478
0.941778
0.102167
-0.595729
0.0773182
0.40968
-0.118548
-0.747822
-0.874938
-0.948344
-0.558012
0.657696
0.295846
-0.761559
-0.302292
0.00317614
0.710959
-0.170799
0.370285
0.0843552
-0.269997
-0.187318
-0.0711907
0.447082
0.849439
-0.262019
0.631333
0.458428
-0.533758
-0.0365432
0.377238
-0.902015
-0.820829
-0.322957
-0.694543
-0.323149
-0.300245
0.741246
-0.752717
-0.943502
-0.36067
0.453106
0.452551
0.359422
0.21943
-0.497267
0.668508
0.771155
-0.324774
-0.750275
0.79651
-0.595735
0.703315
0.468129
0.224953
0.9411
0.334147
-0.685608
0.182838
-0.854854
0.224596
0.946211
0.796545
0.0837728
-0.234948
-0.0067227
0.197429
-0.147565
-0.151976
-0.694365
-0.890085
-0.788897
0.333128
-0.322043
-0.0692326
-0.63
-0.22
0.96
0.48
-0.88
0.4
0.53
0.68
0.55
-0.31
0.18
0.45
0.64
-0.06
-0.69
0.05
-0.78
0.88
-0.45
-0.08
-0.41
-0.21
0.4
-0.86
-0.04
-0.47
0.78
-0.35
0.8
0.33
0.89
0.14
0.37
-0.81
-0.72
-0.19
-0.04
-0.85
0.68
-0.67
-0.76
-0.87
-0.15
0.1
0.66
-0.71
-0.16
-0.4
0.44
0.43
0.35
-0.95
-0.72
-0.72
-0.9
-0.27
0.11
-0.01
-0.27
-0.29
0.98
-0.25
-0.52
0.07
-0.46
0.96
-0.1
0.63
-0.98
-0.93
-0.15
-0.65
-0.65
-0.23
0.88
0.01
0.26
0.29
-0.48
0.04
-0.62
0.22
-0.97
0.82
0.91
-0.09
0.78
0.22
-0.09
-0.51
-0.26
0.06
-0.9
-0.35
-0.08
0.59
0.49
-0.08
0.73
-0.42
0.79
-0.37
-0.06
0.62
0.84
0.67
0.47
-0.42
0.15
-0.82
-0.64
-0.72
0.7
-0.8
-0.96
0.49
-0.93
0.27
-0.04
0.17
-0.94
-0.79
0.9
0.78
-0.77
0.72
0.45
0.58
0.97
0.48
0.16
-0.79
-0.74
-0.73
0
0.35
-0.82
-0.82
-0.4
0.22
-0.84
0.43
-0.46
-0.85
0.56
-0.71
0.32
0.61
-0.87
-0.72
-0.45
-0.95
0.05
-0.69
-0.24
-0.08
0.27
-0.05
0.49
0.2
-0.47
-0.61
-0.35
-0.63
0.51
0.7
-0.44
0.33
-0.75
-0.43
0.37
-0.07
0.25
0.19
-0.01
0.79
0.54
0.67
-0.73
0.35
0.56
0.14
0.3
-0.33
0.87
-0.43
0
0.12
-0.74
-0.74
0.56
0.89
0.79
0.3
0.49
-0.79
-0.55
0.28
-0.1
0.35
0.75
-0.88
0.02
-0.63
-0.83
-0.46
0.48
-0.71
0.38
0.53
-0.62
-0.51
0.98
0.34
-0.58
-0.56
-0.4
0.04
-0.27
-0.64
-0.67
-0.44
-0.38
0.05
0.24
-0.78
0.45
-0.16
0.39
-0.04
0.77
-0.53
-0.49
0.03
0.89
-0.22
0.45
-0.16
0.56
0.36
-0.07
-0.35
0.63
-0.86
0.14
0.33
-0.13
-0.95
-0.21
0.44
0.85493
0.833366
0.429614
-0.634022
-0.226637
-0.284406
0.789188
0.390344
0.378625
-0.982505
-0.180543
0.679102
-0.89842
-0.662642
0.786216
-0.518246
-0.186525
-0.281919
0.760907
0.758762
0.862342
-0.960694
-0.198064
-0.883045
0.131589
0.318233
0.551687
0.169094
0.426656
-0.803824
-0.239997
0.72342
0.461411
-0.866252
0.585932
0.153225
0.278975
-0.806988
-0.544756
0.389422
0.901407
-0.955824
0.985884
-0.992539
0.833812
0.310711
0.652271
0.933041
0.728391
0.391587
0.249221
0.28145
0.536941
0.916008
0.782716
0.917103
0.750831
-0.610033
-0.404319
0.256758
0.389644
0.469746
-0.651297
0.535706
0.036412
0.0294922
0.695208
-0.289924
-0.579498
-0.86183
-0.595377
0.708798
-0.141492
-0.374399
0.60889
-0.242439
-0.215041
-0.0417847
0.627366
0.160189
-0.638807
-0.423207
0.484506
0.640865
-0.854417
0.930506
-0.872172
0.766471
-0.166297
-0.0368634
-0.0567323
-0.782543
-0.627357
-0.519979
-0.238036
-0.241579
0.853341
0.688129
-0.259776
0.0923342
0.698542
0.746783
0.622986
-0.16464
0.102937
0.325847
0.91638
-0.581945
0.933386
0.563138
-0.904455
0.50756
-0.7298
-0.30176
0.487744
0.38755
0.0276608
-0.0321022
0.403684
-0.0233611
-0.118103
-0.377057
-0.0556699
0.700038
0.87809
-0.593559
0.329682
-0.106261
-0.0263602
-0.481301
-0.555926
0.29351
0.121796
-0.733882
0.410701
-0.121046
-0.226657
0.67959
-0.556411
0.0920204
0.869735
0.864107
-0.29073
-0.985133
0.394109
-0.140763
-0.566925
-0.313155
-0.831646
0.285319
-0.0797243
-0.597673
0.441966
-0.0568836
0.56237
-0.766713
0.888966
0.773032
-0.616862
0.176351
-0.930696
0.13884
-0.268172
-0.306886
0.0325084
-0.283019
-0.867746
-0.07585
-0.786917
-0.239801
-0.675342
0.123562
-0.38489
-0.856875
-0.875728
0.313865
0.39245
-0.957567
0.671869
0.29156
-0.706383
0.553256
0.829568
-0.38445
0.284354
-0.2617
0.302821
0.348418
-0.869795
0.0414064
0.430107
0.634201
0.003552
-0.350097
-0.0436858
-0.815882
-0.0933053
0.694489
-0.995426
-0.752785
0.723745
0.156748
0.545725
0.844004
-0.0353491
0.0519229
-0.603008
-0.0350861
-0.238261
0.889126
-0.398353
-0.293584
0.0296143
-0.41538
-0.813984
0.0760467
-0.134109
-0.265672
-0.944687
-0.754583
0.452613
-0.410636
-0.75925
-0.271814
-0.0847647
-0.427203
0.905917
0.587322
-0.34023
-0.058053
0.491079
-0.484161
-0.808142
0.735284
0.884502
0.658481
0.194536
0.341719
-0.155026
-0.780037
-0.465346
0.929895
-0.38692
0.202145
-0.904729
0.756526
-0.145377
-0.0455494
-0.376299
0.219283
-0.238623
0.703838
-0.53039
0.475264
0.412231
-0.622142
-0.862563
0.291238
0.21245
-0.351843
0.0217404
0.951063
0.235662
-0.608983
-0.276759
0.726055
0.68631
0.745242
-0.717959
0.85944
0.892346
0.190994
0.593027
0.859376
-0.766531
0.529742
0.79867
-0.57875
0.562378
0.594792
0.731081
-0.996182
0.40847
0.435683
0.0587151
-0.273641
0.609705
0.662793
-0.320314
-0.0876966
-0.973082
0.616048
0.915607
-0.359658
0.169977
-0.943755
-0.0216152
0.39283
0.878629
0.0632213
0.249232
0.794575
-0.271214
0.678027
-0.560698
0.0672965
0.296269
0.306585
0.887982
1.01381
1.06778
-0.207138
0.209515
-0.382673
0.710525
0.47712
0.298802
0.181621
0.390012
-0.396897
0.0599283
0.489951
0.27993
0.449247
-0.238074
0.772727
-0.176131
0.880591
0.609318
0.392396
0.401216
0.381903
-0.431803
0.106452
-0.983937
-0.517487
0.664727
0.585417
1.0313
-0.5415
-0.0796425
-0.224869
-0.345193
0.0672731
-0.156164
0.510718
-0.899717
-0.74594
-0.0973507
-0.251485
-0.097124
0.26357
0.420303
-0.257141
-0.372704
-0.0699406
-0.924425
0.0956312
0.241184
0.666031
-0.0810404
-0.384611
-0.231161
-0.79988
0.98282
-0.275078
0.718716
-0.252607
-0.451913
-0.955776
-0.878608
0.0902869
-0.708985
-0.772218
0.0272385
-0.78277
0.533148
-0.21109
-0.373494
0.441401
0.810974
-0.514789
0.334145
0.58634
-0.216805
-0.457176
0.186245
-0.575779
0.556149
0.932933
-0.757162
0.624444
-0.085153
-0.89395
-0.962812
0.325634
-0.635934
-0.0637954
-0.653734
0.000434083
0.677
-0.454257
-0.046778
0.115326
0.328658
-0.211165
0.713542
-0.327905
-0.152444
0.474528
-0.556884
-0.0979518
-0.358503
0.571146
0.338416
0.747114
-0.869027
-0.735045
0.42404
-0.31244
0.055256
0.214695
1.01531
-0.507508
0.815061
-0.128484
0.901589
-0.310217
0.397365
0.909899
-0.226427
-0.0700033
0.923328
0.408301
-0.679601
0.334056
0.592815
-0.797212
0.859516
-0.232476
0.0920012
-0.804958
0.864357
0.730715
-0.0863357
-0.250825
-0.0750133
-0.889793
0.841989
0.269947
0.53377
0.0367284
0.851899
0.73629
-0.193384
-0.311267
0.573126
-0.420763
-0.401373
0.333979
0.583559
-0.599482
0.206616
-0.582941
-0.597128
0.870543
-0.511554
0.587099
0.675533
-0.636718
0.776652
-0.774828
-0.661923
0.437868
0.690837
-0.851367
0.581043
0.372216
-0.0718519
0.437661
-0.0950374
-0.0416507
-0.270466
0.00142649
0.693433
-0.812014
0.285619
-0.27903
-0.333461
0.246712
0.233719
-0.28992
0.53198
0.257733
0.813275
0.0327218
0.472024
-0.532184
0.241663
-0.0247791
0.587603
-0.816299
-0.441802
0.887711
-0.335064
0.541679
-0.602615
0.723
-0.776376
-0.296296
0.250328
-0.798023
-0.7366
0.648374
-0.092718
0.341503
0.895294
0.919699
0.252171
-0.0452675
-0.353323
0.204902
-0.907196
0.598308
0.947371
0.500206
-0.560105
0.97506
0.272837
0.943952
-0.906786
0.408917
0.929038
0.414491
0.75723
-0.139234
0.595139
-0.74283
0.944512
0.400766
0.391007
-0.0566862
0.91156
-0.702181
0.788286
-0.206816
0.563601
0.88929
-0.048862
0.585187
0.414868
1.01277
-0.177008
0.326621
-0.586002
0.937325
0.0328257
-0.205116
-0.0247506
-0.341477
-0.556254
-0.965096
-0.398089
0.475228
-0.400193
-0.574997
0.153526
0.722185
0.604727
0.9054
0.586228
0.478276
0.184428
0.967534
0.259724
0.963781
0.751326
-0.941561
-0.974328
0.998646
0.405021
-0.387056
-0.449835
0.992847
0.438087
-0.239088
0.905006
0.181783
0.0547669
-0.919468
-0.161398
0.54427
0.988746
-0.556987
0.254137
-0.284007
-0.500539
-0.286964
0.918457
0.625339
0.164779
0.444656
-0.149573
0.271659
-0.890734
0.621168
-0.371182
0.816552
-0.173525
0.448696
-0.674583
-0.887423
-0.259219
0.376647
0.798762
0.286387
-0.0708734
-0.751285
0.575693
0.872035
-0.00674066
-0.134305
-0.285594
-0.26009
-0.16142
0.63835
0.332597
0.539805
-0.814328
0.140292
0.482522
-0.664089
0.0681549
0.250251
-0.801528
0.724544
-0.3449
-0.586162
0.0675539
-0.181763
0.481899
-0.0339464
0.0571733
-0.869467
0.372584
0.855748
0.245727
-0.124787
-0.737164
0.779712
-0.815611
-0.812773
0.708295
-0.210537
0.483027
-0.0473005
0.060028
-0.0730221
0.682079
0.300396
-0.2872
-0.554975
0.977317
-0.676943
0.402913
0.793439
0.190651
-0.211452
-0.295581
0.302053
0.727939
-0.553371
-0.912994
-0.20767
-0.546894
-0.393344
-0.972318
0.712296
0.802873
-0.615184
-0.369186
0.684756
0.357798
0.0973307
0.276328
-0.410594
-0.2848
-0.566331
-0.145808
0.743763
0.509792
0.101588
-0.708596
-0.710783
0.688364
-0.984958
-0.952218
-0.525298
-0.578278
0.516803
-0.225771
-0.813181
-0.211237
-0.44911
-0.10195
-0.122703
0.0750372
-0.977844
0.0495215
0.743805
0.986817
-0.734271
-0.89259
-0.465406
0.0415769
0.591489
-0.396461
0.161764
-0.498816
0.638736
0.862258
-0.669921
0.0310044
0.43361
0.40839
-0.830938
0.228982
-0.768266
0.861579
-0.723029
-0.471739
0.991008
-0.392901
0.0281614
0.449508
0.967716
0.0287284
-0.740909
0.126555
-0.286059
0.936036
0.312324
0.908822
0.197893
0.381316
-0.138271
-0.649226
0.132614
-0.278441
-0.00100605
0.383202
-0.949705
-0.0683766
0.0919829
-0.455933
0.239623
0.257731
-0.477013
0.890033
0.419434
-0.782023
0.626279
-0.902676
-0.477228
-0.736612
-0.154922
-0.869863
-0.919299
-0.226145
0.404089
-0.113228
0.579541
-0.494493
0.0194519
0.570503
0.582132
-0.18018
0.426811
-0.165431
-0.731498
-0.685262
-0.762832
-0.0297474
1.02368
-0.655483
0.600148
1.02471
-0.546931
0.372893
0.599734
-0.00500544
-0.693765
-0.43405
-0.566568
0.854052
0.574126
-0.796058
-0.34553
0.643208
-0.334241
-0.066844
-0.69217
-0.278989
-0.541028
-0.705787
0.00993777
0.771973
0.0529027
-0.703935
0.715923
-0.060159
-0.672249
0.0214852
0.563321
-0.0365297
0.204083
-0.476184
-1.01542
0.722689
-0.0462403
0.935964
0.217776
-0.475427
0.360983
-0.849308
-0.311585
-0.399046
-0.581187
-0.26909
-0.273155
0.939699
-0.145688
0.259907
0.167714
-0.567206
-0.863886
-0.249521
0.621621
0.931638
-0.245615
-0.592361
-0.782665
-0.168561
0.27399
-0.0268403
0.541912
0.132271
0.175182
-0.820684
0.75392
0.0502674
0.744891
-0.0815881
-0.286481
-0.14442
0.80132
0.392419
0.0390729
0.111244
-0.19774
0.854926
0.94822
0.425205
0.623162
-0.276993
0.390026
0.412219
0.637427
-0.121659
0.898619
0.0471644
-0.862447
0.842615
-0.679312
-0.569394
0.25547
0.331804
-0.304943
-0.801061
0.629086
0.0615028
-0.727537
-0.346032
-0.544523
0.249826
0.93862
0.442969
0.282352
-0.631134
0.421806
0.736534
0.900282
0.96646
0.916949
0.740545
-0.16922
-0.918159
0.808202
-0.549251
0.0424934
0.75
0.87
-0.16
0.67
-0.73
0.18
0.05
-0.98
0.34
0.6
-0.05
0.17
-0.09
0
-0.3
-0.16
0.87
0.45
0.02
0.16
0.66
0.68
0.28
-0.28
-0.9
-0.21
0.34
0.92
0.88
0.07
0.66
0.27
0.35
0.09
0.19
0.41
0.82
0.37
-0.86
0.59
0.04
0.38
-0.75
0.5
-0.52
0.23
0.48
-0.54
-0.33
-0.67
-0.45
0.48
0.05
0
0.86
0.08
-0.7
0.34
-0.04
-0.3
0.78
-0.48
0.49
0.63
-0.12
-0.68
-0.91
0.69
-0.5
0.36
0.19
0.01
0.11
0.8
0.13
0.84
-0.01
-0.7
0.4
-0.64
0.41
0.67
0.75
-0.85
0.34
-0.48
0.08
-0.53
0.08
-0.69
0.3
-0.43
-0.41
0.44
0.73
-0.66
0.96
-0.69
-0.68
-0.49
0.99
0.6
0.92
-0.09
-0.38
0.92
-0.92
0.08
-0.18
0.46
-0.64
-0.42
-0.69
0.88
0.83
0.26
0.19
0.32
-0.3
0.34
0.45
0.75
0.92
0.22
0.54
-0.6
-0.68
-0.42
-0.27
0.07
-0.2
-0.88
-0.46
0.8
0.47
-0.13
-0.53
-0.89
-0.62
-0.61
-0.24
0.94
-0.66
-0.86
0.33
0.29
-0.94
0.24
-0.65
0.77
0.23
0.11
-0.8
0
0.16
0.96
0.04
0.27
0.97
0.18
0.07
0.28
0.23
0.07
-0.22
-0.66
0.74
-0.88
-0.35
0.32
-0.24
0.22
-0.24
-0.08
-0.2
0.63
-0.04
-0.13
0.22
-0.87
0.03
-0.11
-0.32
-0.86
0.85
0.34
-0.18
-0.57
0.89
0.22
-0.11
0.9
0.97
-0.13
-0.24
-0.77
-0.5
-0.14
0.46
-0.17
0.63
-0.49
-0.92
-0.3
-0.45
-0.8
0.99
-0.32
-0.88
-0.12
-0.79
0.58
0.26
-0.7
0.8
0.74
-0.19
0.35
0.47
-0.49
0.41
0.35
-0.95
-0.19
0.61
-0.57
0.36
-0.28
0.27
0.63
0.48
-0.18
-0.64
0.89
-0.35
-0.83
-0.68
0.54
0.63
-0.54
-0.86
-0.81
-0.31
-0.1
-0.83
0.58
0.54
-0.11
0.21
0.57
0.16
0.05
-0.32
-0.9
-0.46
-0.07
0.9
-0.53
-0.56
-0.34
0.14
-0.77
-0.89
-0.82
0.5
0.66
-0.73
-0.34
-0.29
-0.98
0.54
0.16
-0.78
-0.67
0.15
-0.69
-0.96
-0.05
0.56
-0.86
0.01
0.17
-0.91
0.21
-0.43
-0.54
-0.73
-0.09
0.26
0.48
-0.15
0.09
0.25
-0.82
0.07
0.28
0.62
0.29
-0.19
-0.22
-0.82507
0.953366
0.689614
0.235978
-0.376637
0.405594
-0.140812
0.0303441
-0.101375
-0.412505
0.709457
-0.650898
0.26158
0.927358
-0.483784
0.781754
0.743475
0.448081
0.920907
-0.651238
0.182342
-0.420694
0.601936
0.386955
-0.428411
-0.731767
-0.718313
-0.200906
-0.693344
-0.113824
-0.679997
-0.18658
0.601411
0.673748
0.475932
0.423225
-0.851025
0.533012
0.195244
0.219422
0.251407
0.254176
0.245884
-0.312539
0.513812
-0.049289
-0.787729
0.163041
0.368391
-0.948413
-0.709364
-0.512094
0.670278
-0.172977
-0.534213
-0.512685
0.847557
0.308451
-0.540422
0.765156
0.709527
-0.502485
-0.0215942
-0.384867
0.0268533
-0.249795
-0.557825
-0.250916
0.225917
-0.884114
0.672342
0.976743
-0.879441
0.0989692
-0.0898739
0.271386
0.0234438
0.887307
0.690727
-0.935255
-0.687645
0.75719
-0.627839
0.517727
0.743746
0.267086
0.415307
0.610949
0.565797
-0.958932
0.572364
-0.334948
0.621587
0.495628
-0.636801
0.0495749
-0.100177
0.457235
0.00183055
-0.3453
-0.637885
0.773105
-0.409005
0.426684
-0.771761
0.432749
0.579383
0.179035
-0.645143
-0.486465
-0.615704
0.38079
-0.377988
-0.774144
-0.453203
0.846111
0.0902617
-0.0600295
0.711337
0.221936
-0.924308
-0.579634
-0.233094
0.798605
0.757308
0.843792
-0.271409
0.903593
0.577944
0.221255
-0.210056
0.974926
-0.165642
-0.510989
0.095854
0.898752
0.431412
-0.685651
-0.750186
0.0818888
0.665921
0.695697
0.681009
0.822493
0.476613
0.487717
-0.377772
-0.631051
0.61214
0.337486
0.62815
-0.104773
-0.844753
-0.491162
0.645707
0.68383
0.583313
-0.180159
0.43658
-0.43654
-0.678434
-0.716743
-0.521763
0.3533
0.301861
0.590424
-0.612544
0.454508
-0.131877
-0.669218
0.352689
-0.947545
0.630357
-0.661626
0.85593
-0.712626
0.273193
0.102291
0.945408
-0.295968
-0.46023
-0.190148
0.350937
0.502076
0.145577
0.538494
-0.326693
0.802154
-0.581624
-0.0450081
-0.394276
-0.147083
-0.55973
0.334341
-0.257897
-0.0406781
-0.83462
0.528728
-0.616316
-0.098792
0.7669
-0.875481
-0.107521
-0.470614
0.398799
-0.330127
-0.329122
-0.420002
0.937952
-0.566841
-0.39848
0.657499
0.542026
0.453284
-0.417263
-0.030291
0.199786
-1.03756
0.187726
0.731491
0.941078
-0.174192
-0.339724
1.0084
0.51906
-0.607329
-0.425567
0.24213
-0.281438
0.623207
-0.974625
0.577165
-0.0208389
-0.107609
0.930061
0.589962
0.467893
-0.820494
-0.534853
-0.755497
-0.376773
-0.242934
-0.256405
0.407977
0.108693
-0.182317
-0.960461
-0.466106
0.481139
0.317423
0.435269
0.768762
0.572676
0.554429
-0.874975
0.612412
0.722174
0.634968
0.414759
0.926856
-0.307122
-0.276774
-0.11129
-0.532106
0.516748
0.632295
-0.0482391
-0.550313
-0.796753
0.152425
0.992598
-0.046573
-0.318344
-0.126919
-0.107014
-0.966588
0.136148
-0.632805
0.0136213
-0.492637
0.506556
0.739733
-0.872635
-0.191823
-0.278909
-0.109368
-0.403151
-0.648816
-0.774592
-0.0524498
0.742755
0.786123
-0.87254
0.554873
-0.981031
0.249603
0.438998
0.665646
-0.848654
0.828244
0.66657
0.463941
0.345336
-0.762416
0.86839
0.323672
0.427254
-0.682811
-0.866093
-0.825805
-0.783871
-0.0208018
1.03438
0.846932
-0.656123
-0.795751
0.084439
0.227347
0.143493
-0.472252
0.375806
-0.805342
0.39821
-0.615832
-0.419593
0.0824148
0.899929
-0.256492
0.457538
-0.196785
0.181505
-0.133896
-0.770115
0.219981
0.399853
0.707293
-0.0556321
0.374781
0.631797
-0.861451
-0.95511
-0.826641
0.182758
0.495693
0.689412
-0.405495
0.81259
-0.15927
-0.0943569
0.599743
0.210609
-0.507291
-0.306361
-0.371314
-0.566478
0.236869
-0.180541
0.56746
0.11786
0.327312
0.290586
0.887356
-0.34608
-0.707125
-0.42802
-0.62132
-0.527291
-0.295788
-0.738758
-0.0572433
-0.743092
-0.650561
0.536987
0.128435
-0.595338
0.29873
-0.306188
0.735584
0.155016
0.893368
0.52482
0.628759
0.381367
0.0414921
-0.20803
0.465541
-0.0923987
0.8511
-0.314197
-0.323088
0.998102
0.182953
-0.440992
0.436717
0.152954
0.180335
0.284406
-0.024775
0.101064
-0.105319
0.18753
0.730047
-0.230228
-0.324804
0.48079
-0.730002
-0.711093
0.22843
0.364852
0.656007
0.831472
-0.686026
-0.92405
-0.0483184
-0.436928
-0.965186
-0.307636
-0.533845
-0.55842
0.557251
0.643817
-0.298731
0.166583
0.79289
0.239012
0.599876
-0.115911
-0.89547
0.386638
0.505622
0.731881
-0.91276
0.332649
0.729304
-0.826276
0.213651
-0.811657
0.378088
-0.240078
0.825276
0.176619
0.0711635
0.282765
0.162226
-0.136701
-0.520578
0.0849129
-0.241628
0.300016
-0.851583
-0.139682
0.741404
-0.65994
0.229161
-0.533642
0.914627
0.719607
-0.307267
0.285521
-0.245763
0.785314
0.213796
-0.00543545
0.208845
-0.778347
0.0866035
0.000322462
0.139972
0.536216
0.342258
0.980538
0.738854
0.794611
0.807431
-0.575367
0.367779
-0.536388
0.762505
-0.114502
-0.18501
0.900514
-0.0879054
0.762422
-0.628797
-0.0865162
0.00175939
0.516688
0.0434418
0.773265
-0.0298632
0.0892828
0.148475
0.732192
1.00452
-0.234715
0.375998
-0.198664
-0.0925053
-0.105866
-0.338588
0.100255
-0.69952
-0.876631
-0.95379
-0.865133
-0.37243
0.124533
-0.72268
-0.315552
0.364499
-0.26599
-0.477449
0.588112
-0.819971
0.835352
0.0338449
-0.339962
-0.22088
0.845935
-0.0328818
-0.234678
0.983845
0.567239
-0.380003
0.503793
-0.109076
0.890749
0.353814
-0.767048
-0.481715
-0.861325
0.732559
0.249952
-0.767446
-0.782441
-0.106561
-0.515256
0.565899
-0.409654
-0.767857
0.447156
-0.0497353
-0.595273
0.0994917
0.925976
0.895515
0.319265
0.335931
0.097458
-0.816673
-0.861563
-0.265875
0.0324875
0.0655973
-0.662464
0.759076
-0.243639
-0.62817
0.245945
0.531638
0.19126
-0.567982
-0.190746
-0.709844
-0.328058
0.390449
0.972255
0.20977
0.718418
-0.60887
-0.265756
-0.226656
0.324282
-0.458888
0.357999
0.96676
-0.665013
0.612963
0.694559
-0.551883
-0.801471
0.209954
0.667626
0.268693
0.0866721
-0.656802
-1.00492
-0.310299
-0.810651
-0.981403
0.5046
0.454248
0.915204
0.073881
0.0361102
0.0448495
-0.780874
-0.728121
-0.359523
0.38122
0.430458
-0.894482
0.961785
-0.571295
0.435158
-0.782066
-0.59951
-0.563699
0.998272
1.03486
0.185611
0.191121
0.503067
0.735929
0.551033
-0.122782
-0.242574
-0.689499
-0.126845
-0.0878761
-0.940705
-0.00665078
-0.466969
-0.41942
0.684725
-0.450493
0.465894
0.692532
-0.197852
0.756293
-0.613623
-0.471926
-0.665178
-0.0272271
0.334764
-0.170136
-0.542854
-0.55203
-0.462057
-0.464979
-0.13768
0.434153
-0.728923
0.631482
0.816098
0.146356
-0.0747408
-0.576141
-0.674292
0.4736
0.360674
0.524299
-0.323769
-0.75212
-0.899466
-0.874302
0.655702
-0.395363
0.151292
0.334739
-0.21737
-0.210072
0.857536
-0.526235
0.0866205
-0.920447
0.142807
-0.388727
-0.887252
-0.879265
0.774075
-0.872305
0.431173
-0.992193
-0.661051
-0.489913
-0.710192
-0.272429
-0.528128
0.846229
0.0185453
-0.952707
0.640535
-0.4294
0.477887
-0.404204
-0.797526
0.231804
0.605692
0.717611
-0.930867
-0.131953
0.0248906
-0.645048
0.411442
-0.351488
0.429789
-0.688705
0.578493
0.651171
0.29687
-0.862746
-1.01258
0.140746
-0.237926
0.232475
0.879379
0.311471
-0.231193
-0.116274
0.166574
-0.746252
-0.48447
-0.879781
-0.496369
-0.191725
-0.67007
0.0308225
0.401898
0.483079
0.45763
-0.78917
-0.0693328
0.470017
0.224447
-0.26483
0.00504587
0.576101
0.951507
-1.00302
-0.275825
0.898237
0.503413
-0.561836
-0.0550517
-0.867653
-0.812353
0.0410175
-1.01917
0.846527
-0.691553
-0.608378
-0.782195
-0.815925
0.520216
-0.813884
0.2333
0.0203607
0.812474
-0.263805
0.249629
-0.442606
0.883148
0.897722
0.343967
0.777181
-0.937029
0.113709
-0.90193
0.0648566
-0.49044
0.309672
0.270858
0.878179
-0.696558
0.16147
0.713169
0.952038
0.604711
-0.939978
-0.843387
0.735358
0.0577197
-0.164427
-0.709892
-0.556774
0.796813
-0.897199
-0.482815
0.917161
-0.456877
0.541329
-0.317631
-0.103898
0.799733
-0.0604512
0.0249523
-0.221907
-0.949031
-0.435528
-0.0605897
0.0108279
0.97669
0.787305
0.521234
-0.836282
0.739692
-0.685053
-0.680831
-0.903769
-0.335104
-0.575658
-0.894982
0.834344
0.659457
-0.295849
0.883339
0.540196
-0.367012
-0.000213468
0.553338
-0.830577
-0.962944
0.415501
0.64466
0.801728
-0.999684
-0.463152
0.733807
0.609437
0.484074
0.689135
-0.0272054
-0.231538
-0.987866
0.947412
-0.0196127
0.90626
-0.116106
0.789439
0.130483
-0.348632
-0.549044
-0.311896
0.0319768
-0.0192022
-0.598107
0.0164431
-0.852496
0.00142716
-0.297978
-0.405301
0.297138
-0.0642708
-0.333737
-0.63928
0.0485165
0.714516
-0.547578
0.312416
0.436666
0.977239
0.899813
0.867076
0.00827999
0.106928
-0.770289
-0.778481
-0.629726
-0.834865
-0.354541
-0.399089
-0.79942
0.475752
-0.598358
0.33799
-0.704426
0.438801
0.090164
0.52607
0.727305
0.159456
-0.472082
0.349143
-0.735561
-0.0776354
0.818378
0.669856
0.828598
0.959456
0.484011
-0.596714
-0.733618
0.432932
0.673516
0.788301
-0.0494614
-0.384974
0.795375
0.600051
-1.01443
-0.370928
-0.753105
0.721888
-0.211239
-0.269996
-0.541485
0.664561
-0.164484
0.988463
0.73
0.79
0.38
0.45
0.61
0.49
-0.53
0.27
0.58
-0.23
0.3
0.36
0.3
-0.57
-0.64
0.58
-0.31
0.42
0.69
0.69
-0.4
0.04
0.51
-0.68
0.57
-0.22
-0.01
-0.22
0.79
-0.99
0.93
-0.95
0.08
0.44
-0.96
-0.17
0.98
0.39
0.36
-0.47
0.51
-0.88
0.19
-0.38
0.18
0.71
0.3
0.36
0.65
0.25
-0.29
-0.45
0.55
-0.14
-0.71
0.64
0.55
-0.36
-0.93
0.7
-0.54
-0.1
-0.13
-0.13
0.22
-0.98
-0.99
0.93
-0.22
0.95
0.17
-0.65
-0.54
-0.05
-0.04
0.87
-0.77
0.38
-0.75
0.04
0.84
0.85
-0.32
-0.29
0.33
0.96
0.97
-0.31
0.54
-0.83
-0.02
-0.5
0.17
-0.97
-0.27
-0.35
-0.35
-0.65
0.77
0
-0.74
-0.94
0.59
0.96
0.04
0.78
-0.23
-0.04
0.29
0.14
0.75
-0.38
0
0.71
0.81
0.89
0.1
-0.48
-0.65
0.85
-0.28
-0.83
0
-0.52
0.68
-0.6
-0.19
0.82
-0.68
0.25
0.94
-0.42
-0.53
0.85
-0.54
0.59
-0.01
0.06
0.57
0.97
0.72
0.96
-0.48
-0.65
0.29
0.27
-0.55
-0.2
-0.52
0.35
-0.39
0.14
-0.94
-0.26
0.46
0.87
0.57
0.66
0.19
-0.5
-0.01
-0.84
0.9
-0.19
-0.39
0.5
0.71
-0.62
0.82
-0.46
0.81
0.98
0.98
0.49
0.33
0.46
0.37
-0.06
0.69
0.73
-0.13
0.9
-0.22
0.53
0.64
-0.37
0.86
0.26
-0.15
-0.9
-0.91
0.7
0.84
-0.57
-0.51
-0.17
-0.7
0.73
-0.24
0.76
-0.79
0.25
-0.97
0.02
-0.01
-0.38
-0.52
0.49
0.67
0.08
-0.21
0.28
-0.86
-0.09
0.66
-0.05
-0.97
0.84
0.79
-0.86
-0.32
0.22
0.83
0.43
0.23
0.42
0.36
-0.29
-0.03
0.92
0.79
0.51
-0.41
0.53
-0.78
-0.25
-0.2
0.55
0.02
0.58
0.09
-0.99
-0.55
-0.66
0.27
-0.62
-0.81
-0.06
-0.78
0.68
-0.65
0.61
0.99
-0.42
-0.12
-0.34
0.26
0.77
-0.06
-0.83
0.19
0.43
0.14
0.62
0.2
-0.65
0.17
0.77
-0.45
0.12
-0.86
-0.5
-0.03
0.34
-0.17
0.44
0.07
-0.02
-0.93
0.35
0
-0.23
0.36
0.79
-0.82
-0.03
0.81
0.95
-0.47
-0.93
-0.55
0.19
0.29
-0.8
0.25
0.12
-0.93
0.92
0.82
0.63
0.22
0.43
0.15
0.31
0.13
-0.35
0.55
-0.3
-0.9
0.97
0.13
0
0.65
-0.67
-0.83
0.07
0.77
-0.52
-0.98
-0.79
-0.94
0.53
-0.42
-0.93
-0.25
-0.84
-0.97
0.27
0.68
0.16
0.88
-0.76
-0.76
-0.42
0.49
-0.29
-0.5
-0.87
-0.63
0.91
0.39
-0.38
-0.3
-0.71
-0.44
0.52
0.53
-0.89
0.76
0.18
-0.0852328
0.254293
0.398672
0.958946
0.413251
0.340933
-0.775611
-0.501004
0.55307
-0.649384
-0.636115
0.525996
0.926406
0.679537
-0.220294
0.911842
-0.322759
-0.0628713
0.0789663
-0.396341
0.81876
0.774518
0.774119
0.431294
-0.79907
0.945782
-0.510214
-0.187541
-0.694878
-0.421483
0.563401
0.705638
-0.722859
0.920458
-0.656037
0.216326
0.390279
0.848977
-0.384899
-0.532867
0.116654
-0.913961
0.398879
0.842108
-0.483138
-0.519071
0.19279
-0.867914
0.90811
0.467641
-0.757834
-0.158282
-0.50581
0.997101
-0.457855
-0.833354
0.820606
0.669391
-0.121628
0.401233
0.649886
-0.7279
0.745917
0.469291
0.808028
-0.543996
-0.131163
-0.554192
1.00775
0.702085
-0.147303
0.710819
-0.373612
-0.85305
-0.263029
-0.806526
-0.113621
-0.334607
0.0498266
0.0801227
-0.259832
-0.666325
0.420769
0.571645
0.968839
-0.46033
-0.28984
-0.302233
0.297285
0.399877
0.408328
0.619837
-0.369598
-0.127495
0.338046
-0.702527
-0.351405
0.765989
-0.664287
-0.472724
0.937431
0.360737
-0.720038
-0.207621
0.642148
0.564739
-0.327615
0.906867
-0.161262
0.861792
0.396849
0.495453
0.252087
-0.873778
-0.888785
0.57101
-0.584135
-0.640059
0.281898
0.297116
-0.589644
-0.875044
-0.746799
0.111336
0.84626
0.500317
0.261054
-0.867335
-0.163701
-0.873941
0.484414
-0.383005
0.0580948
-0.38267
1.00097
0.352721
-0.297006
0.83009
-0.30898
-0.00172678
0.420305
-0.761065
0.42429
0.784405
0.448349
-0.0757335
-0.730175
-0.259218
-0.824977
0.929521
-0.268189
0.810716
-0.588827
-0.0563114
-0.859404
-0.78164
0.382128
-0.688174
0.926168
-0.873412
-0.539846
-0.821294
0.512163
-0.73931
-0.866092
0.699566
-0.204346
0.698951
0.786878
0.74614
0.35854
0.467369
0.494363
0.84878
-0.388639
-0.552542
0.00958899
0.24161
-0.886061
0.720161
-0.564779
-0.150461
0.628414
-0.551721
0.26367
-0.841237
-0.762787
0.896517
-0.936903
0.0271475
-0.561673
-0.907079
0.0947688
-0.239014
0.784676
-0.582193
0.478477
-0.214497
-0.164753
0.60293
0.901891
-0.153961
0.512623
0.255099
-0.338179
-0.906205
-0.175961
0.385045
-1.05382
0.152121
-0.38501
0.0029078
0.76818
-0.694966
-0.729426
0.522933
-0.322343
-0.699544
0.497292
-0.594496
-0.760398
0.0945902
0.226051
0.0780013
0.930748
-0.418124
-0.382059
-0.242506
0.530881
0.0406743
-0.592755
-0.429498
0.634518
-1.0667
0.795655
-0.855849
-0.44462
-0.519645
-1.00416
-0.127058
0.911133
-0.632456
0.0281147
-0.343757
0.681089
-0.72206
-0.39381
-0.498713
-0.322614
0.104479
0.0148264
0.836261
-0.0450171
-0.243643
